digraph Tree {
node [shape=box, style="filled, rounded", color="black", fontname="helvetica"] ;
edge [fontname="helvetica"] ;
0 [label=<x0_Mercedes-Benz &le; 0.5<br/>squared_error = 393816861886.694<br/>samples = 350<br/>value = 511168.537>, fillcolor="#fdf8f4"] ;
1 [label=<ปีที่ออกขายครั้งแรก &le; 0.5<br/>squared_error = 150944129089.53<br/>samples = 341<br/>value = 453648.062>, fillcolor="#fef9f5"] ;
0 -> 1 [labeldistance=2.5, labelangle=45, headlabel="True"] ;
2 [label=<x0_CNG &le; 2013.5<br/>squared_error = 84286052144.482<br/>samples = 316<br/>value = 399632.877>, fillcolor="#fef9f6"] ;
1 -> 2 ;
3 [label=<x0_CNG &le; 2008.5<br/>squared_error = 25921046541.763<br/>samples = 151<br/>value = 224304.603>, fillcolor="#fefcfb"] ;
2 -> 3 ;
4 [label=<x0_Mahindra &le; 0.5<br/>squared_error = 2887803354.132<br/>samples = 51<br/>value = 115372.51>, fillcolor="#fffefd"] ;
3 -> 4 ;
5 [label=<x0_CNG &le; 2007.5<br/>squared_error = 2198249567.246<br/>samples = 47<br/>value = 108489.34>, fillcolor="#fffefd"] ;
4 -> 5 ;
6 [label=<x0_CNG &le; 2005.5<br/>squared_error = 1516240132.676<br/>samples = 42<br/>value = 99261.881>, fillcolor="#fffefe"] ;
5 -> 6 ;
7 [label=<จำนวนเจ้าของรถในอดีต &le; 1.5<br/>squared_error = 425822714.681<br/>samples = 19<br/>value = 80421.053>, fillcolor="#fffefe"] ;
6 -> 7 ;
8 [label=<x0_Hyundai &le; 0.5<br/>squared_error = 390000000.0<br/>samples = 5<br/>value = 100000.0>, fillcolor="#fffefe"] ;
7 -> 8 ;
9 [label=<x0_เต๊นท์รถ &le; 0.5<br/>squared_error = 104687500.0<br/>samples = 4<br/>value = 108750.0>, fillcolor="#fffefd"] ;
8 -> 9 ;
10 [label=<squared_error = 0.0<br/>samples = 1<br/>value = 100000.0>, fillcolor="#fffefe"] ;
9 -> 10 ;
11 [label=<x0_CNG &le; 2003.5<br/>squared_error = 105555555.556<br/>samples = 3<br/>value = 111666.667>, fillcolor="#fffefd"] ;
9 -> 11 ;
12 [label=<squared_error = 0.0<br/>samples = 1<br/>value = 125000.0>, fillcolor="#fffefd"] ;
11 -> 12 ;
13 [label=<x0_SuzukiI &le; 0.5<br/>squared_error = 25000000.0<br/>samples = 2<br/>value = 105000.0>, fillcolor="#fffefd"] ;
11 -> 13 ;
14 [label=<squared_error = 0.0<br/>samples = 1<br/>value = 110000.0>, fillcolor="#fffefd"] ;
13 -> 14 ;
15 [label=<squared_error = 0.0<br/>samples = 1<br/>value = 100000.0>, fillcolor="#fffefe"] ;
13 -> 15 ;
16 [label=<squared_error = 0.0<br/>samples = 1<br/>value = 65000.0>, fillcolor="#fffffe"] ;
8 -> 16 ;
17 [label=<x0_CNG &le; 2003.5<br/>squared_error = 252816326.531<br/>samples = 14<br/>value = 73428.571>, fillcolor="#fffffe"] ;
7 -> 17 ;
18 [label=<x0_CNG &le; 2001.5<br/>squared_error = 105138888.889<br/>samples = 6<br/>value = 58833.333>, fillcolor="#ffffff"] ;
17 -> 18 ;
19 [label=<จำนวนเจ้าของรถในอดีต &le; 2.5<br/>squared_error = 72250000.0<br/>samples = 2<br/>value = 51500.0>, fillcolor="#ffffff"] ;
18 -> 19 ;
20 [label=<squared_error = 0.0<br/>samples = 1<br/>value = 43000.0>, fillcolor="#ffffff"] ;
19 -> 20 ;
21 [label=<squared_error = 0.0<br/>samples = 1<br/>value = 60000.0>, fillcolor="#ffffff"] ;
19 -> 21 ;
22 [label=<x0_Suzuki &le; 0.5<br/>squared_error = 81250000.0<br/>samples = 4<br/>value = 62500.0>, fillcolor="#ffffff"] ;
18 -> 22 ;
23 [label=<squared_error = 0.0<br/>samples = 1<br/>value = 50000.0>, fillcolor="#ffffff"] ;
22 -> 23 ;
24 [label=<x0_เจ้าของขายเอง &le; 0.5<br/>squared_error = 38888888.889<br/>samples = 3<br/>value = 66666.667>, fillcolor="#fffffe"] ;
22 -> 24 ;
25 [label=<x0_LPG &le; 90000.0<br/>squared_error = 6250000.0<br/>samples = 2<br/>value = 62500.0>, fillcolor="#ffffff"] ;
24 -> 25 ;
26 [label=<squared_error = 0.0<br/>samples = 1<br/>value = 60000.0>, fillcolor="#ffffff"] ;
25 -> 26 ;
27 [label=<squared_error = 0.0<br/>samples = 1<br/>value = 65000.0>, fillcolor="#fffffe"] ;
25 -> 27 ;
28 [label=<squared_error = 0.0<br/>samples = 1<br/>value = 75000.0>, fillcolor="#fffffe"] ;
24 -> 28 ;
29 [label=<x0_Honda &le; 0.5<br/>squared_error = 83984375.0<br/>samples = 8<br/>value = 84375.0>, fillcolor="#fffefe"] ;
17 -> 29 ;
30 [label=<x0_Tata &le; 0.5<br/>squared_error = 56122448.98<br/>samples = 7<br/>value = 82142.857>, fillcolor="#fffefe"] ;
29 -> 30 ;
31 [label=<x0_LPG &le; 55000.0<br/>squared_error = 36805555.556<br/>samples = 6<br/>value = 84166.667>, fillcolor="#fffefe"] ;
30 -> 31 ;
32 [label=<x0_LPG &le; 45000.0<br/>squared_error = 56250000.0<br/>samples = 2<br/>value = 87500.0>, fillcolor="#fffefe"] ;
31 -> 32 ;
33 [label=<squared_error = 0.0<br/>samples = 1<br/>value = 80000.0>, fillcolor="#fffefe"] ;
32 -> 33 ;
34 [label=<squared_error = 0.0<br/>samples = 1<br/>value = 95000.0>, fillcolor="#fffefe"] ;
32 -> 34 ;
35 [label=<x0_LPG &le; 62500.0<br/>squared_error = 18750000.0<br/>samples = 4<br/>value = 82500.0>, fillcolor="#fffefe"] ;
31 -> 35 ;
36 [label=<squared_error = 0.0<br/>samples = 2<br/>value = 80000.0>, fillcolor="#fffefe"] ;
35 -> 36 ;
37 [label=<x0_Hyundai &le; 0.5<br/>squared_error = 25000000.0<br/>samples = 2<br/>value = 85000.0>, fillcolor="#fffefe"] ;
35 -> 37 ;
38 [label=<squared_error = 0.0<br/>samples = 1<br/>value = 90000.0>, fillcolor="#fffefe"] ;
37 -> 38 ;
39 [label=<squared_error = 0.0<br/>samples = 1<br/>value = 80000.0>, fillcolor="#fffefe"] ;
37 -> 39 ;
40 [label=<squared_error = 0.0<br/>samples = 1<br/>value = 70000.0>, fillcolor="#fffffe"] ;
30 -> 40 ;
41 [label=<squared_error = 0.0<br/>samples = 1<br/>value = 100000.0>, fillcolor="#fffefe"] ;
29 -> 41 ;
42 [label=<x0_Ford &le; 0.5<br/>squared_error = 1881534869.607<br/>samples = 23<br/>value = 114826.043>, fillcolor="#fffefd"] ;
6 -> 42 ;
43 [label=<จำนวนเจ้าของรถในอดีต &le; 2.5<br/>squared_error = 1779296621.361<br/>samples = 21<br/>value = 111476.143>, fillcolor="#fffefd"] ;
42 -> 43 ;
44 [label=<x0_Suzuki &le; 0.5<br/>squared_error = 1904250785.781<br/>samples = 14<br/>value = 121499.929>, fillcolor="#fffefd"] ;
43 -> 44 ;
45 [label=<x0_Hyundai &le; 0.5<br/>squared_error = 190131944.583<br/>samples = 6<br/>value = 95166.5>, fillcolor="#fffefe"] ;
44 -> 45 ;
46 [label=<จำนวนเจ้าของรถในอดีต &le; 1.5<br/>squared_error = 47994000.188<br/>samples = 4<br/>value = 103999.75>, fillcolor="#fffefe"] ;
45 -> 46 ;
47 [label=<squared_error = 0.0<br/>samples = 3<br/>value = 100000.0>, fillcolor="#fffefe"] ;
46 -> 47 ;
48 [label=<squared_error = 0.0<br/>samples = 1<br/>value = 115999.0>, fillcolor="#fffefd"] ;
46 -> 48 ;
49 [label=<x0_Manual &le; 0.5<br/>squared_error = 6250000.0<br/>samples = 2<br/>value = 77500.0>, fillcolor="#fffefe"] ;
45 -> 49 ;
50 [label=<squared_error = 0.0<br/>samples = 1<br/>value = 75000.0>, fillcolor="#fffffe"] ;
49 -> 50 ;
51 [label=<squared_error = 0.0<br/>samples = 1<br/>value = 80000.0>, fillcolor="#fffefe"] ;
49 -> 51 ;
52 [label=<x0_LPG &le; 105000.0<br/>squared_error = 2279687500.0<br/>samples = 8<br/>value = 141250.0>, fillcolor="#fffdfd"] ;
44 -> 52 ;
53 [label=<จำนวนเจ้าของรถในอดีต &le; 1.5<br/>squared_error = 747222222.222<br/>samples = 6<br/>value = 123333.333>, fillcolor="#fffefd"] ;
52 -> 53 ;
54 [label=<x0_LPG &le; 64190.0<br/>squared_error = 400000000.0<br/>samples = 2<br/>value = 155000.0>, fillcolor="#fffdfc"] ;
53 -> 54 ;
55 [label=<squared_error = 0.0<br/>samples = 1<br/>value = 135000.0>, fillcolor="#fffefd"] ;
54 -> 55 ;
56 [label=<squared_error = 0.0<br/>samples = 1<br/>value = 175000.0>, fillcolor="#fffdfc"] ;
54 -> 56 ;
57 [label=<x0_LPG &le; 69504.5<br/>squared_error = 168750000.0<br/>samples = 4<br/>value = 107500.0>, fillcolor="#fffefd"] ;
53 -> 57 ;
58 [label=<squared_error = 0.0<br/>samples = 1<br/>value = 90000.0>, fillcolor="#fffefe"] ;
57 -> 58 ;
59 [label=<x0_LPG &le; 83500.0<br/>squared_error = 88888888.889<br/>samples = 3<br/>value = 113333.333>, fillcolor="#fffefd"] ;
57 -> 59 ;
60 [label=<squared_error = 0.0<br/>samples = 1<br/>value = 120000.0>, fillcolor="#fffefd"] ;
59 -> 60 ;
61 [label=<squared_error = 100000000.0<br/>samples = 2<br/>value = 110000.0>, fillcolor="#fffefd"] ;
59 -> 61 ;
62 [label=<x0_LPG &le; 122500.0<br/>squared_error = 3025000000.0<br/>samples = 2<br/>value = 195000.0>, fillcolor="#fffdfb"] ;
52 -> 62 ;
63 [label=<squared_error = 0.0<br/>samples = 1<br/>value = 250000.0>, fillcolor="#fefcfa"] ;
62 -> 63 ;
64 [label=<squared_error = 0.0<br/>samples = 1<br/>value = 140000.0>, fillcolor="#fffdfd"] ;
62 -> 64 ;
65 [label=<x0_CNG &le; 2006.5<br/>squared_error = 926530612.245<br/>samples = 7<br/>value = 91428.571>, fillcolor="#fffefe"] ;
43 -> 65 ;
66 [label=<x0_LPG &le; 100000.0<br/>squared_error = 688888888.889<br/>samples = 3<br/>value = 116666.667>, fillcolor="#fffefd"] ;
65 -> 66 ;
67 [label=<x0_Suzuki &le; 0.5<br/>squared_error = 25000000.0<br/>samples = 2<br/>value = 135000.0>, fillcolor="#fffefd"] ;
66 -> 67 ;
68 [label=<squared_error = 0.0<br/>samples = 1<br/>value = 130000.0>, fillcolor="#fffefd"] ;
67 -> 68 ;
69 [label=<squared_error = 0.0<br/>samples = 1<br/>value = 140000.0>, fillcolor="#fffdfd"] ;
67 -> 69 ;
70 [label=<squared_error = 0.0<br/>samples = 1<br/>value = 80000.0>, fillcolor="#fffefe"] ;
66 -> 70 ;
71 [label=<x0_เจ้าของขายเอง &le; 0.5<br/>squared_error = 268750000.0<br/>samples = 4<br/>value = 72500.0>, fillcolor="#fffffe"] ;
65 -> 71 ;
72 [label=<x0_LPG &le; 125000.0<br/>squared_error = 22222222.222<br/>samples = 3<br/>value = 63333.333>, fillcolor="#ffffff"] ;
71 -> 72 ;
73 [label=<squared_error = 0.0<br/>samples = 2<br/>value = 60000.0>, fillcolor="#ffffff"] ;
72 -> 73 ;
74 [label=<squared_error = 0.0<br/>samples = 1<br/>value = 70000.0>, fillcolor="#fffffe"] ;
72 -> 74 ;
75 [label=<squared_error = 0.0<br/>samples = 1<br/>value = 100000.0>, fillcolor="#fffefe"] ;
71 -> 75 ;
76 [label=<x0_เต๊นท์รถ &le; 0.5<br/>squared_error = 1600000000.0<br/>samples = 2<br/>value = 150000.0>, fillcolor="#fffdfc"] ;
42 -> 76 ;
77 [label=<squared_error = 0.0<br/>samples = 1<br/>value = 110000.0>, fillcolor="#fffefd"] ;
76 -> 77 ;
78 [label=<squared_error = 0.0<br/>samples = 1<br/>value = 190000.0>, fillcolor="#fffdfb"] ;
76 -> 78 ;
79 [label=<x0_LPG &le; 70000.0<br/>squared_error = 1204000000.0<br/>samples = 5<br/>value = 186000.0>, fillcolor="#fffdfc"] ;
5 -> 79 ;
80 [label=<x0_LPG &le; 41472.5<br/>squared_error = 438888888.889<br/>samples = 3<br/>value = 203333.333>, fillcolor="#fefdfb"] ;
79 -> 80 ;
81 [label=<squared_error = 0.0<br/>samples = 1<br/>value = 175000.0>, fillcolor="#fffdfc"] ;
80 -> 81 ;
82 [label=<x0_LPG &le; 56886.0<br/>squared_error = 56250000.0<br/>samples = 2<br/>value = 217500.0>, fillcolor="#fefcfb"] ;
80 -> 82 ;
83 [label=<squared_error = 0.0<br/>samples = 1<br/>value = 210000.0>, fillcolor="#fefcfb"] ;
82 -> 83 ;
84 [label=<squared_error = 0.0<br/>samples = 1<br/>value = 225000.0>, fillcolor="#fefcfb"] ;
82 -> 84 ;
85 [label=<x0_เจ้าของขายเอง &le; 0.5<br/>squared_error = 1225000000.0<br/>samples = 2<br/>value = 160000.0>, fillcolor="#fffdfc"] ;
79 -> 85 ;
86 [label=<squared_error = 0.0<br/>samples = 1<br/>value = 125000.0>, fillcolor="#fffefd"] ;
85 -> 86 ;
87 [label=<squared_error = 0.0<br/>samples = 1<br/>value = 195000.0>, fillcolor="#fffdfb"] ;
85 -> 87 ;
88 [label=<x0_CNG &le; 2007.5<br/>squared_error = 3892240625.188<br/>samples = 4<br/>value = 196249.75>, fillcolor="#fffdfb"] ;
4 -> 88 ;
89 [label=<x0_LPG &le; 77500.0<br/>squared_error = 172222222.222<br/>samples = 3<br/>value = 231666.667>, fillcolor="#fefcfa"] ;
88 -> 89 ;
90 [label=<squared_error = 0.0<br/>samples = 1<br/>value = 250000.0>, fillcolor="#fefcfa"] ;
89 -> 90 ;
91 [label=<x0_LPG &le; 170000.0<br/>squared_error = 6250000.0<br/>samples = 2<br/>value = 222500.0>, fillcolor="#fefcfb"] ;
89 -> 91 ;
92 [label=<squared_error = 0.0<br/>samples = 1<br/>value = 225000.0>, fillcolor="#fefcfb"] ;
91 -> 92 ;
93 [label=<squared_error = 0.0<br/>samples = 1<br/>value = 220000.0>, fillcolor="#fefcfb"] ;
91 -> 93 ;
94 [label=<squared_error = 0.0<br/>samples = 1<br/>value = 89999.0>, fillcolor="#fffefe"] ;
88 -> 94 ;
95 [label=<x0_Toyota &le; 0.5<br/>squared_error = 28529839291.629<br/>samples = 100<br/>value = 279859.97>, fillcolor="#fefbf9"] ;
3 -> 95 ;
96 [label=<x0_Mahindra &le; 0.5<br/>squared_error = 20906720985.844<br/>samples = 92<br/>value = 258326.065>, fillcolor="#fefcfa"] ;
95 -> 96 ;
97 [label=<x0_Tata &le; 0.5<br/>squared_error = 14600297599.655<br/>samples = 82<br/>value = 236463.402>, fillcolor="#fefcfa"] ;
96 -> 97 ;
98 [label=<x0_เจ้าของขายเอง &le; 0.5<br/>squared_error = 14419227355.612<br/>samples = 69<br/>value = 254927.522>, fillcolor="#fefcfa"] ;
97 -> 98 ;
99 [label=<x0_Volkswagen &le; 0.5<br/>squared_error = 8687593853.774<br/>samples = 40<br/>value = 219574.975>, fillcolor="#fefcfb"] ;
98 -> 99 ;
100 [label=<x0_LPG &le; 58517.5<br/>squared_error = 6774021735.483<br/>samples = 38<br/>value = 208763.132>, fillcolor="#fefcfb"] ;
99 -> 100 ;
101 [label=<x0_LPG &le; 26316.5<br/>squared_error = 7056213017.751<br/>samples = 13<br/>value = 267692.308>, fillcolor="#fefcfa"] ;
100 -> 101 ;
102 [label=<x0_Suzuki &le; 0.5<br/>squared_error = 756250000.0<br/>samples = 2<br/>value = 172500.0>, fillcolor="#fffdfc"] ;
101 -> 102 ;
103 [label=<squared_error = 0.0<br/>samples = 1<br/>value = 200000.0>, fillcolor="#fefdfb"] ;
102 -> 103 ;
104 [label=<squared_error = 0.0<br/>samples = 1<br/>value = 145000.0>, fillcolor="#fffdfd"] ;
102 -> 104 ;
105 [label=<จำนวนเจ้าของรถในอดีต &le; 1.5<br/>squared_error = 6254545454.545<br/>samples = 11<br/>value = 285000.0>, fillcolor="#fefbf9"] ;
101 -> 105 ;
106 [label=<x0_Suzuki &le; 0.5<br/>squared_error = 5549000000.0<br/>samples = 10<br/>value = 274000.0>, fillcolor="#fefbf9"] ;
105 -> 106 ;
107 [label=<x0_Manual &le; 0.5<br/>squared_error = 1145918367.347<br/>samples = 7<br/>value = 300714.286>, fillcolor="#fefbf9"] ;
106 -> 107 ;
108 [label=<x0_LPG &le; 44500.0<br/>squared_error = 376000000.0<br/>samples = 5<br/>value = 282000.0>, fillcolor="#fefbf9"] ;
107 -> 108 ;
109 [label=<x0_CNG &le; 2009.5<br/>squared_error = 100000000.0<br/>samples = 2<br/>value = 260000.0>, fillcolor="#fefcfa"] ;
108 -> 109 ;
110 [label=<squared_error = 0.0<br/>samples = 1<br/>value = 270000.0>, fillcolor="#fefbf9"] ;
109 -> 110 ;
111 [label=<squared_error = 0.0<br/>samples = 1<br/>value = 250000.0>, fillcolor="#fefcfa"] ;
109 -> 111 ;
112 [label=<x0_CNG &le; 2011.0<br/>squared_error = 22222222.222<br/>samples = 3<br/>value = 296666.667>, fillcolor="#fefbf9"] ;
108 -> 112 ;
113 [label=<squared_error = 0.0<br/>samples = 2<br/>value = 300000.0>, fillcolor="#fefbf9"] ;
112 -> 113 ;
114 [label=<squared_error = 0.0<br/>samples = 1<br/>value = 290000.0>, fillcolor="#fefbf9"] ;
112 -> 114 ;
115 [label=<x0_CNG &le; 2011.0<br/>squared_error = 6250000.0<br/>samples = 2<br/>value = 347500.0>, fillcolor="#fefaf8"] ;
107 -> 115 ;
116 [label=<squared_error = 0.0<br/>samples = 1<br/>value = 350000.0>, fillcolor="#fefaf8"] ;
115 -> 116 ;
117 [label=<squared_error = 0.0<br/>samples = 1<br/>value = 345000.0>, fillcolor="#fefaf8"] ;
115 -> 117 ;
118 [label=<x0_LPG &le; 45000.0<br/>squared_error = 10272222222.222<br/>samples = 3<br/>value = 211666.667>, fillcolor="#fefcfb"] ;
106 -> 118 ;
119 [label=<squared_error = 0.0<br/>samples = 1<br/>value = 350000.0>, fillcolor="#fefaf8"] ;
118 -> 119 ;
120 [label=<x0_CNG &le; 2011.5<br/>squared_error = 1056250000.0<br/>samples = 2<br/>value = 142500.0>, fillcolor="#fffdfd"] ;
118 -> 120 ;
121 [label=<squared_error = 0.0<br/>samples = 1<br/>value = 175000.0>, fillcolor="#fffdfc"] ;
120 -> 121 ;
122 [label=<squared_error = 0.0<br/>samples = 1<br/>value = 110000.0>, fillcolor="#fffefd"] ;
120 -> 122 ;
123 [label=<squared_error = 0.0<br/>samples = 1<br/>value = 395000.0>, fillcolor="#fefaf6"] ;
105 -> 123 ;
124 [label=<x0_CNG &le; 2010.5<br/>squared_error = 3882501449.638<br/>samples = 25<br/>value = 178119.96>, fillcolor="#fffdfc"] ;
100 -> 124 ;
125 [label=<x0_Hyundai &le; 0.5<br/>squared_error = 2981243055.556<br/>samples = 12<br/>value = 151583.333>, fillcolor="#fffdfc"] ;
124 -> 125 ;
126 [label=<x0_เบนซิน &le; 0.5<br/>squared_error = 554484375.0<br/>samples = 8<br/>value = 126375.0>, fillcolor="#fffefd"] ;
125 -> 126 ;
127 [label=<x0_CNG &le; 2009.5<br/>squared_error = 282571428.571<br/>samples = 7<br/>value = 133000.0>, fillcolor="#fffefd"] ;
126 -> 127 ;
128 [label=<x0_LPG &le; 83382.0<br/>squared_error = 27687500.0<br/>samples = 4<br/>value = 145250.0>, fillcolor="#fffdfd"] ;
127 -> 128 ;
129 [label=<x0_Manual &le; 0.5<br/>squared_error = 250000.0<br/>samples = 2<br/>value = 150500.0>, fillcolor="#fffdfc"] ;
128 -> 129 ;
130 [label=<squared_error = 0.0<br/>samples = 1<br/>value = 150000.0>, fillcolor="#fffdfc"] ;
129 -> 130 ;
131 [label=<squared_error = 0.0<br/>samples = 1<br/>value = 151000.0>, fillcolor="#fffdfc"] ;
129 -> 131 ;
132 [label=<squared_error = 0.0<br/>samples = 2<br/>value = 140000.0>, fillcolor="#fffdfd"] ;
128 -> 132 ;
133 [label=<x0_Suzuki &le; 0.5<br/>squared_error = 155555555.556<br/>samples = 3<br/>value = 116666.667>, fillcolor="#fffefd"] ;
127 -> 133 ;
134 [label=<x0_Suzukii &le; 0.5<br/>squared_error = 25000000.0<br/>samples = 2<br/>value = 125000.0>, fillcolor="#fffefd"] ;
133 -> 134 ;
135 [label=<squared_error = 0.0<br/>samples = 1<br/>value = 130000.0>, fillcolor="#fffefd"] ;
134 -> 135 ;
136 [label=<squared_error = 0.0<br/>samples = 1<br/>value = 120000.0>, fillcolor="#fffefd"] ;
134 -> 136 ;
137 [label=<squared_error = 0.0<br/>samples = 1<br/>value = 100000.0>, fillcolor="#fffefe"] ;
133 -> 137 ;
138 [label=<squared_error = 0.0<br/>samples = 1<br/>value = 80000.0>, fillcolor="#fffefe"] ;
126 -> 138 ;
139 [label=<x0_LPG &le; 104000.0<br/>squared_error = 4022000000.0<br/>samples = 4<br/>value = 202000.0>, fillcolor="#fefdfb"] ;
125 -> 139 ;
140 [label=<x0_LPG &le; 71000.0<br/>squared_error = 2658666666.667<br/>samples = 3<br/>value = 176000.0>, fillcolor="#fffdfc"] ;
139 -> 140 ;
141 [label=<squared_error = 0.0<br/>samples = 1<br/>value = 248000.0>, fillcolor="#fefcfa"] ;
140 -> 141 ;
142 [label=<x0_ดีเซล &le; 0.5<br/>squared_error = 100000000.0<br/>samples = 2<br/>value = 140000.0>, fillcolor="#fffdfd"] ;
140 -> 142 ;
143 [label=<squared_error = 0.0<br/>samples = 1<br/>value = 150000.0>, fillcolor="#fffdfc"] ;
142 -> 143 ;
144 [label=<squared_error = 0.0<br/>samples = 1<br/>value = 130000.0>, fillcolor="#fffefd"] ;
142 -> 144 ;
145 [label=<squared_error = 0.0<br/>samples = 1<br/>value = 280000.0>, fillcolor="#fefbf9"] ;
139 -> 145 ;
146 [label=<x0_Chevrolet &le; 0.5<br/>squared_error = 3464386319.598<br/>samples = 13<br/>value = 202615.308>, fillcolor="#fefdfb"] ;
124 -> 146 ;
147 [label=<x0_Automatic &le; 0.5<br/>squared_error = 2615997600.09<br/>samples = 10<br/>value = 217999.9>, fillcolor="#fefcfb"] ;
146 -> 147 ;
148 [label=<x0_เต๊นท์รถ &le; 0.5<br/>squared_error = 1225035000.25<br/>samples = 2<br/>value = 264999.5>, fillcolor="#fefcfa"] ;
147 -> 148 ;
149 [label=<squared_error = 0.0<br/>samples = 1<br/>value = 229999.0>, fillcolor="#fefcfa"] ;
148 -> 149 ;
150 [label=<squared_error = 0.0<br/>samples = 1<br/>value = 300000.0>, fillcolor="#fefbf9"] ;
148 -> 150 ;
151 [label=<x0_LPG &le; 95000.0<br/>squared_error = 2273437500.0<br/>samples = 8<br/>value = 206250.0>, fillcolor="#fefcfb"] ;
147 -> 151 ;
152 [label=<x0_Honda &le; 0.5<br/>squared_error = 2180555555.556<br/>samples = 6<br/>value = 191666.667>, fillcolor="#fffdfb"] ;
151 -> 152 ;
153 [label=<x0_CNG &le; 2011.5<br/>squared_error = 1496000000.0<br/>samples = 5<br/>value = 178000.0>, fillcolor="#fffdfc"] ;
152 -> 153 ;
154 [label=<squared_error = 0.0<br/>samples = 1<br/>value = 250000.0>, fillcolor="#fefcfa"] ;
153 -> 154 ;
155 [label=<x0_เต๊นท์รถ &le; 0.5<br/>squared_error = 250000000.0<br/>samples = 4<br/>value = 160000.0>, fillcolor="#fffdfc"] ;
153 -> 155 ;
156 [label=<squared_error = 0.0<br/>samples = 1<br/>value = 180000.0>, fillcolor="#fffdfc"] ;
155 -> 156 ;
157 [label=<x0_CNG &le; 2012.5<br/>squared_error = 155555555.556<br/>samples = 3<br/>value = 153333.333>, fillcolor="#fffdfc"] ;
155 -> 157 ;
158 [label=<จำนวนเจ้าของรถในอดีต &le; 1.5<br/>squared_error = 25000000.0<br/>samples = 2<br/>value = 145000.0>, fillcolor="#fffdfd"] ;
157 -> 158 ;
159 [label=<squared_error = 0.0<br/>samples = 1<br/>value = 150000.0>, fillcolor="#fffdfc"] ;
158 -> 159 ;
160 [label=<squared_error = 0.0<br/>samples = 1<br/>value = 140000.0>, fillcolor="#fffdfd"] ;
158 -> 160 ;
161 [label=<squared_error = 0.0<br/>samples = 1<br/>value = 170000.0>, fillcolor="#fffdfc"] ;
157 -> 161 ;
162 [label=<squared_error = 0.0<br/>samples = 1<br/>value = 260000.0>, fillcolor="#fefcfa"] ;
152 -> 162 ;
163 [label=<squared_error = 0.0<br/>samples = 2<br/>value = 250000.0>, fillcolor="#fefcfa"] ;
151 -> 163 ;
164 [label=<x0_LPG &le; 90000.0<br/>squared_error = 2873555555.556<br/>samples = 3<br/>value = 151333.333>, fillcolor="#fffdfc"] ;
146 -> 164 ;
165 [label=<จำนวนเจ้าของรถในอดีต &le; 1.5<br/>squared_error = 2256250000.0<br/>samples = 2<br/>value = 177500.0>, fillcolor="#fffdfc"] ;
164 -> 165 ;
166 [label=<squared_error = 0.0<br/>samples = 1<br/>value = 130000.0>, fillcolor="#fffefd"] ;
165 -> 166 ;
167 [label=<squared_error = 0.0<br/>samples = 1<br/>value = 225000.0>, fillcolor="#fefcfb"] ;
165 -> 167 ;
168 [label=<squared_error = 0.0<br/>samples = 1<br/>value = 99000.0>, fillcolor="#fffefe"] ;
164 -> 168 ;
169 [label=<x0_LPG &le; 75000.0<br/>squared_error = 625000000.0<br/>samples = 2<br/>value = 425000.0>, fillcolor="#fef9f6"] ;
99 -> 169 ;
170 [label=<squared_error = 0.0<br/>samples = 1<br/>value = 450000.0>, fillcolor="#fef9f5"] ;
169 -> 170 ;
171 [label=<squared_error = 0.0<br/>samples = 1<br/>value = 400000.0>, fillcolor="#fef9f6"] ;
169 -> 171 ;
172 [label=<x0_Chevrolet &le; 0.5<br/>squared_error = 18223317479.191<br/>samples = 29<br/>value = 303689.655>, fillcolor="#fefbf9"] ;
98 -> 172 ;
173 [label=<จำนวนเจ้าของรถในอดีต &le; 1.5<br/>squared_error = 16508250000.0<br/>samples = 18<br/>value = 361500.0>, fillcolor="#fefaf7"] ;
172 -> 173 ;
174 [label=<x0_Hyundai &le; 0.5<br/>squared_error = 8919109375.0<br/>samples = 8<br/>value = 437125.0>, fillcolor="#fef9f5"] ;
173 -> 174 ;
175 [label=<x0_LPG &le; 55000.0<br/>squared_error = 3873040000.0<br/>samples = 5<br/>value = 392400.0>, fillcolor="#fefaf6"] ;
174 -> 175 ;
176 [label=<squared_error = 0.0<br/>samples = 1<br/>value = 500000.0>, fillcolor="#fef8f4"] ;
175 -> 176 ;
177 [label=<x0_Ford &le; 0.5<br/>squared_error = 1223250000.0<br/>samples = 4<br/>value = 365500.0>, fillcolor="#fefaf7"] ;
175 -> 177 ;
178 [label=<x0_CNG &le; 2012.5<br/>squared_error = 57555555.556<br/>samples = 3<br/>value = 345666.667>, fillcolor="#fefaf8"] ;
177 -> 178 ;
179 [label=<x0_CNG &le; 2011.5<br/>squared_error = 1000000.0<br/>samples = 2<br/>value = 351000.0>, fillcolor="#fefaf7"] ;
178 -> 179 ;
180 [label=<squared_error = 0.0<br/>samples = 1<br/>value = 350000.0>, fillcolor="#fefaf8"] ;
179 -> 180 ;
181 [label=<squared_error = 0.0<br/>samples = 1<br/>value = 352000.0>, fillcolor="#fefaf7"] ;
179 -> 181 ;
182 [label=<squared_error = 0.0<br/>samples = 1<br/>value = 335000.0>, fillcolor="#fefaf8"] ;
178 -> 182 ;
183 [label=<squared_error = 0.0<br/>samples = 1<br/>value = 425000.0>, fillcolor="#fef9f6"] ;
177 -> 183 ;
184 [label=<x0_Manual &le; 0.5<br/>squared_error = 8438888888.889<br/>samples = 3<br/>value = 511666.667>, fillcolor="#fdf8f4"] ;
174 -> 184 ;
185 [label=<x0_CNG &le; 2012.5<br/>squared_error = 625000000.0<br/>samples = 2<br/>value = 575000.0>, fillcolor="#fdf7f2"] ;
184 -> 185 ;
186 [label=<squared_error = 0.0<br/>samples = 1<br/>value = 600000.0>, fillcolor="#fdf6f1"] ;
185 -> 186 ;
187 [label=<squared_error = 0.0<br/>samples = 1<br/>value = 550000.0>, fillcolor="#fdf7f3"] ;
185 -> 187 ;
188 [label=<squared_error = 0.0<br/>samples = 1<br/>value = 385000.0>, fillcolor="#fefaf7"] ;
184 -> 188 ;
189 [label=<x0_Automatic &le; 0.5<br/>squared_error = 14344000000.0<br/>samples = 10<br/>value = 301000.0>, fillcolor="#fefbf9"] ;
173 -> 189 ;
190 [label=<x0_LPG &le; 102501.0<br/>squared_error = 10000000000.0<br/>samples = 2<br/>value = 500000.0>, fillcolor="#fef8f4"] ;
189 -> 190 ;
191 [label=<squared_error = 0.0<br/>samples = 1<br/>value = 400000.0>, fillcolor="#fef9f6"] ;
190 -> 191 ;
192 [label=<squared_error = 0.0<br/>samples = 1<br/>value = 600000.0>, fillcolor="#fdf6f1"] ;
190 -> 192 ;
193 [label=<x0_LPG &le; 52500.0<br/>squared_error = 3054687500.0<br/>samples = 8<br/>value = 251250.0>, fillcolor="#fefcfa"] ;
189 -> 193 ;
194 [label=<squared_error = 0.0<br/>samples = 1<br/>value = 150000.0>, fillcolor="#fffdfc"] ;
193 -> 194 ;
195 [label=<x0_Ford &le; 0.5<br/>squared_error = 1817346938.775<br/>samples = 7<br/>value = 265714.286>, fillcolor="#fefcfa"] ;
193 -> 195 ;
196 [label=<x0_CNG &le; 2011.5<br/>squared_error = 1005555555.556<br/>samples = 6<br/>value = 278333.333>, fillcolor="#fefbf9"] ;
195 -> 196 ;
197 [label=<x0_LPG &le; 140000.0<br/>squared_error = 244000000.0<br/>samples = 5<br/>value = 291000.0>, fillcolor="#fefbf9"] ;
196 -> 197 ;
198 [label=<x0_CNG &le; 2009.5<br/>squared_error = 167187500.0<br/>samples = 4<br/>value = 296250.0>, fillcolor="#fefbf9"] ;
197 -> 198 ;
199 [label=<squared_error = 0.0<br/>samples = 1<br/>value = 275000.0>, fillcolor="#fefbf9"] ;
198 -> 199 ;
200 [label=<x0_CNG &le; 2010.5<br/>squared_error = 22222222.222<br/>samples = 3<br/>value = 303333.333>, fillcolor="#fefbf9"] ;
198 -> 200 ;
201 [label=<squared_error = 0.0<br/>samples = 1<br/>value = 310000.0>, fillcolor="#fefbf8"] ;
200 -> 201 ;
202 [label=<squared_error = 0.0<br/>samples = 2<br/>value = 300000.0>, fillcolor="#fefbf9"] ;
200 -> 202 ;
203 [label=<squared_error = 0.0<br/>samples = 1<br/>value = 270000.0>, fillcolor="#fefbf9"] ;
197 -> 203 ;
204 [label=<squared_error = 0.0<br/>samples = 1<br/>value = 215000.0>, fillcolor="#fefcfb"] ;
196 -> 204 ;
205 [label=<squared_error = 0.0<br/>samples = 1<br/>value = 190000.0>, fillcolor="#fffdfb"] ;
195 -> 205 ;
206 [label=<x0_LPG &le; 41500.0<br/>squared_error = 6612082644.628<br/>samples = 11<br/>value = 209090.909>, fillcolor="#fefcfb"] ;
172 -> 206 ;
207 [label=<squared_error = 0.0<br/>samples = 1<br/>value = 390000.0>, fillcolor="#fefaf7"] ;
206 -> 207 ;
208 [label=<x0_CNG &le; 2010.5<br/>squared_error = 3673200000.0<br/>samples = 10<br/>value = 191000.0>, fillcolor="#fffdfb"] ;
206 -> 208 ;
209 [label=<x0_LPG &le; 100962.5<br/>squared_error = 622222222.222<br/>samples = 3<br/>value = 273333.333>, fillcolor="#fefbf9"] ;
208 -> 209 ;
210 [label=<squared_error = 0.0<br/>samples = 1<br/>value = 240000.0>, fillcolor="#fefcfa"] ;
209 -> 210 ;
211 [label=<จำนวนเจ้าของรถในอดีต &le; 2.5<br/>squared_error = 100000000.0<br/>samples = 2<br/>value = 290000.0>, fillcolor="#fefbf9"] ;
209 -> 211 ;
212 [label=<squared_error = 0.0<br/>samples = 1<br/>value = 280000.0>, fillcolor="#fefbf9"] ;
211 -> 212 ;
213 [label=<squared_error = 0.0<br/>samples = 1<br/>value = 300000.0>, fillcolor="#fefbf9"] ;
211 -> 213 ;
214 [label=<x0_CNG &le; 2011.5<br/>squared_error = 830489795.918<br/>samples = 7<br/>value = 155714.286>, fillcolor="#fffdfc"] ;
208 -> 214 ;
215 [label=<x0_LPG &le; 65000.0<br/>squared_error = 144000000.0<br/>samples = 2<br/>value = 118000.0>, fillcolor="#fffefd"] ;
214 -> 215 ;
216 [label=<squared_error = 0.0<br/>samples = 1<br/>value = 106000.0>, fillcolor="#fffefd"] ;
215 -> 216 ;
217 [label=<squared_error = 0.0<br/>samples = 1<br/>value = 130000.0>, fillcolor="#fffefd"] ;
215 -> 217 ;
218 [label=<x0_LPG &le; 94000.0<br/>squared_error = 308560000.0<br/>samples = 5<br/>value = 170800.0>, fillcolor="#fffdfc"] ;
214 -> 218 ;
219 [label=<จำนวนเจ้าของรถในอดีต &le; 1.5<br/>squared_error = 38000000.0<br/>samples = 3<br/>value = 158000.0>, fillcolor="#fffdfc"] ;
218 -> 219 ;
220 [label=<x0_Automatic &le; 0.5<br/>squared_error = 20250000.0<br/>samples = 2<br/>value = 154500.0>, fillcolor="#fffdfc"] ;
219 -> 220 ;
221 [label=<squared_error = 0.0<br/>samples = 1<br/>value = 159000.0>, fillcolor="#fffdfc"] ;
220 -> 221 ;
222 [label=<squared_error = 0.0<br/>samples = 1<br/>value = 150000.0>, fillcolor="#fffdfc"] ;
220 -> 222 ;
223 [label=<squared_error = 0.0<br/>samples = 1<br/>value = 165000.0>, fillcolor="#fffdfc"] ;
219 -> 223 ;
224 [label=<x0_CNG &le; 2012.5<br/>squared_error = 100000000.0<br/>samples = 2<br/>value = 190000.0>, fillcolor="#fffdfb"] ;
218 -> 224 ;
225 [label=<squared_error = 0.0<br/>samples = 1<br/>value = 180000.0>, fillcolor="#fffdfc"] ;
224 -> 225 ;
226 [label=<squared_error = 0.0<br/>samples = 1<br/>value = 200000.0>, fillcolor="#fefdfb"] ;
224 -> 226 ;
227 [label=<x0_LPG &le; 75000.0<br/>squared_error = 4147479289.941<br/>samples = 13<br/>value = 138461.538>, fillcolor="#fffefd"] ;
97 -> 227 ;
228 [label=<x0_LPG &le; 37500.0<br/>squared_error = 523440000.0<br/>samples = 5<br/>value = 84400.0>, fillcolor="#fffefe"] ;
227 -> 228 ;
229 [label=<จำนวนเจ้าของรถในอดีต &le; 2.0<br/>squared_error = 77555555.556<br/>samples = 3<br/>value = 67333.333>, fillcolor="#fffffe"] ;
228 -> 229 ;
230 [label=<x0_LPG &le; 20000.0<br/>squared_error = 2250000.0<br/>samples = 2<br/>value = 73500.0>, fillcolor="#fffffe"] ;
229 -> 230 ;
231 [label=<squared_error = 0.0<br/>samples = 1<br/>value = 75000.0>, fillcolor="#fffffe"] ;
230 -> 231 ;
232 [label=<squared_error = 0.0<br/>samples = 1<br/>value = 72000.0>, fillcolor="#fffffe"] ;
230 -> 232 ;
233 [label=<squared_error = 0.0<br/>samples = 1<br/>value = 55000.0>, fillcolor="#ffffff"] ;
229 -> 233 ;
234 [label=<จำนวนเจ้าของรถในอดีต &le; 1.5<br/>squared_error = 100000000.0<br/>samples = 2<br/>value = 110000.0>, fillcolor="#fffefd"] ;
228 -> 234 ;
235 [label=<squared_error = 0.0<br/>samples = 1<br/>value = 120000.0>, fillcolor="#fffefd"] ;
234 -> 235 ;
236 [label=<squared_error = 0.0<br/>samples = 1<br/>value = 100000.0>, fillcolor="#fffefe"] ;
234 -> 236 ;
237 [label=<x0_Automatic &le; 0.5<br/>squared_error = 3444187500.0<br/>samples = 8<br/>value = 172250.0>, fillcolor="#fffdfc"] ;
227 -> 237 ;
238 [label=<squared_error = 0.0<br/>samples = 1<br/>value = 90000.0>, fillcolor="#fffefe"] ;
237 -> 238 ;
239 [label=<x0_LPG &le; 137750.0<br/>squared_error = 2831714285.714<br/>samples = 7<br/>value = 184000.0>, fillcolor="#fffdfc"] ;
237 -> 239 ;
240 [label=<x0_LPG &le; 89000.0<br/>squared_error = 3317040000.0<br/>samples = 5<br/>value = 197600.0>, fillcolor="#fffdfb"] ;
239 -> 240 ;
241 [label=<จำนวนเจ้าของรถในอดีต &le; 1.5<br/>squared_error = 1850888888.889<br/>samples = 3<br/>value = 159333.333>, fillcolor="#fffdfc"] ;
240 -> 241 ;
242 [label=<squared_error = 1892250000.0<br/>samples = 2<br/>value = 176500.0>, fillcolor="#fffdfc"] ;
241 -> 242 ;
243 [label=<squared_error = 0.0<br/>samples = 1<br/>value = 125000.0>, fillcolor="#fffefd"] ;
241 -> 243 ;
244 [label=<x0_CNG &le; 2010.5<br/>squared_error = 25000000.0<br/>samples = 2<br/>value = 255000.0>, fillcolor="#fefcfa"] ;
240 -> 244 ;
245 [label=<squared_error = 0.0<br/>samples = 1<br/>value = 250000.0>, fillcolor="#fefcfa"] ;
244 -> 245 ;
246 [label=<squared_error = 0.0<br/>samples = 1<br/>value = 260000.0>, fillcolor="#fefcfa"] ;
244 -> 246 ;
247 [label=<squared_error = 0.0<br/>samples = 2<br/>value = 150000.0>, fillcolor="#fffdfc"] ;
239 -> 247 ;
248 [label=<x0_CNG &le; 2011.5<br/>squared_error = 36560881520.09<br/>samples = 10<br/>value = 437599.9>, fillcolor="#fef9f5"] ;
96 -> 248 ;
249 [label=<x0_LPG &le; 125000.0<br/>squared_error = 9760192080.16<br/>samples = 5<br/>value = 310199.8>, fillcolor="#fefbf8"] ;
248 -> 249 ;
250 [label=<x0_CNG &le; 2010.5<br/>squared_error = 704666666.667<br/>samples = 3<br/>value = 387000.0>, fillcolor="#fefaf7"] ;
249 -> 250 ;
251 [label=<x0_CNG &le; 2009.5<br/>squared_error = 30250000.0<br/>samples = 2<br/>value = 405500.0>, fillcolor="#fef9f6"] ;
250 -> 251 ;
252 [label=<squared_error = 0.0<br/>samples = 1<br/>value = 411000.0>, fillcolor="#fef9f6"] ;
251 -> 252 ;
253 [label=<squared_error = 0.0<br/>samples = 1<br/>value = 400000.0>, fillcolor="#fef9f6"] ;
251 -> 253 ;
254 [label=<squared_error = 0.0<br/>samples = 1<br/>value = 350000.0>, fillcolor="#fefaf8"] ;
250 -> 254 ;
255 [label=<x0_LPG &le; 180000.0<br/>squared_error = 1224965000.25<br/>samples = 2<br/>value = 194999.5>, fillcolor="#fffdfb"] ;
249 -> 255 ;
256 [label=<squared_error = 0.0<br/>samples = 1<br/>value = 160000.0>, fillcolor="#fffdfc"] ;
255 -> 256 ;
257 [label=<squared_error = 0.0<br/>samples = 1<br/>value = 229999.0>, fillcolor="#fefcfa"] ;
255 -> 257 ;
258 [label=<x0_CNG &le; 2012.5<br/>squared_error = 30900000000.0<br/>samples = 5<br/>value = 565000.0>, fillcolor="#fdf7f2"] ;
248 -> 258 ;
259 [label=<x0_Manual &le; 0.5<br/>squared_error = 13888888888.889<br/>samples = 3<br/>value = 683333.333>, fillcolor="#fdf5ef"] ;
258 -> 259 ;
260 [label=<squared_error = 0.0<br/>samples = 2<br/>value = 600000.0>, fillcolor="#fdf6f1"] ;
259 -> 260 ;
261 [label=<squared_error = 0.0<br/>samples = 1<br/>value = 850000.0>, fillcolor="#fcf2eb"] ;
259 -> 261 ;
262 [label=<x0_Manual &le; 0.5<br/>squared_error = 3906250000.0<br/>samples = 2<br/>value = 387500.0>, fillcolor="#fefaf7"] ;
258 -> 262 ;
263 [label=<squared_error = 0.0<br/>samples = 1<br/>value = 450000.0>, fillcolor="#fef9f5"] ;
262 -> 263 ;
264 [label=<squared_error = 0.0<br/>samples = 1<br/>value = 325000.0>, fillcolor="#fefbf8"] ;
262 -> 264 ;
265 [label=<x0_LPG &le; 115000.0<br/>squared_error = 49537523125.109<br/>samples = 8<br/>value = 527499.875>, fillcolor="#fdf7f3"] ;
95 -> 265 ;
266 [label=<x0_CNG &le; 2012.5<br/>squared_error = 5117188125.188<br/>samples = 4<br/>value = 436249.75>, fillcolor="#fef9f5"] ;
265 -> 266 ;
267 [label=<จำนวนเจ้าของรถในอดีต &le; 1.5<br/>squared_error = 816693333.556<br/>samples = 3<br/>value = 474999.667>, fillcolor="#fef8f4"] ;
266 -> 267 ;
268 [label=<squared_error = 25000000.0<br/>samples = 2<br/>value = 495000.0>, fillcolor="#fef8f4"] ;
267 -> 268 ;
269 [label=<squared_error = 0.0<br/>samples = 1<br/>value = 434999.0>, fillcolor="#fef9f5"] ;
267 -> 269 ;
270 [label=<squared_error = 0.0<br/>samples = 1<br/>value = 320000.0>, fillcolor="#fefbf8"] ;
266 -> 270 ;
271 [label=<x0_LPG &le; 180000.0<br/>squared_error = 77304687500.0<br/>samples = 4<br/>value = 618750.0>, fillcolor="#fdf6f1"] ;
265 -> 271 ;
272 [label=<x0_LPG &le; 140000.0<br/>squared_error = 56406250000.0<br/>samples = 2<br/>value = 837500.0>, fillcolor="#fcf3ec"] ;
271 -> 272 ;
273 [label=<squared_error = 0.0<br/>samples = 1<br/>value = 600000.0>, fillcolor="#fdf6f1"] ;
272 -> 273 ;
274 [label=<squared_error = 0.0<br/>samples = 1<br/>value = 1075000.0>, fillcolor="#fcefe6"] ;
272 -> 274 ;
275 [label=<x0_LPG &le; 215000.0<br/>squared_error = 2500000000.0<br/>samples = 2<br/>value = 400000.0>, fillcolor="#fef9f6"] ;
271 -> 275 ;
276 [label=<squared_error = 0.0<br/>samples = 1<br/>value = 450000.0>, fillcolor="#fef9f5"] ;
275 -> 276 ;
277 [label=<squared_error = 0.0<br/>samples = 1<br/>value = 350000.0>, fillcolor="#fefaf8"] ;
275 -> 277 ;
278 [label=<x0_เจ้าของขายเอง &le; 0.5<br/>squared_error = 83822290928.153<br/>samples = 165<br/>value = 560084.812>, fillcolor="#fdf7f2"] ;
2 -> 278 ;
279 [label=<x0_LPG &le; 16576.0<br/>squared_error = 36153978332.991<br/>samples = 92<br/>value = 424923.859>, fillcolor="#fef9f6"] ;
278 -> 279 ;
280 [label=<x0_Mitsubishi &le; 0.5<br/>squared_error = 44611015124.762<br/>samples = 21<br/>value = 617619.0>, fillcolor="#fdf6f1"] ;
279 -> 280 ;
281 [label=<x0_Manual &le; 0.5<br/>squared_error = 37841689750.692<br/>samples = 19<br/>value = 648684.211>, fillcolor="#fdf6f0"] ;
280 -> 281 ;
282 [label=<x0_CNG &le; 2018.5<br/>squared_error = 26316454081.633<br/>samples = 14<br/>value = 591785.714>, fillcolor="#fdf6f2"] ;
281 -> 282 ;
283 [label=<x0_Hyundai &le; 0.5<br/>squared_error = 24541836734.694<br/>samples = 7<br/>value = 492857.143>, fillcolor="#fef8f4"] ;
282 -> 283 ;
284 [label=<x0_Tata &le; 0.5<br/>squared_error = 7631250000.0<br/>samples = 4<br/>value = 377500.0>, fillcolor="#fefaf7"] ;
283 -> 284 ;
285 [label=<x0_Suzuki &le; 0.5<br/>squared_error = 6250000.0<br/>samples = 2<br/>value = 312500.0>, fillcolor="#fefbf8"] ;
284 -> 285 ;
286 [label=<squared_error = 0.0<br/>samples = 1<br/>value = 315000.0>, fillcolor="#fefbf8"] ;
285 -> 286 ;
287 [label=<squared_error = 0.0<br/>samples = 1<br/>value = 310000.0>, fillcolor="#fefbf8"] ;
285 -> 287 ;
288 [label=<x0_LPG &le; 9500.0<br/>squared_error = 6806250000.0<br/>samples = 2<br/>value = 442500.0>, fillcolor="#fef9f5"] ;
284 -> 288 ;
289 [label=<squared_error = 0.0<br/>samples = 1<br/>value = 360000.0>, fillcolor="#fefaf7"] ;
288 -> 289 ;
290 [label=<squared_error = 0.0<br/>samples = 1<br/>value = 525000.0>, fillcolor="#fdf8f3"] ;
288 -> 290 ;
291 [label=<x0_CNG &le; 2016.0<br/>squared_error = 5688888888.889<br/>samples = 3<br/>value = 646666.667>, fillcolor="#fdf6f0"] ;
283 -> 291 ;
292 [label=<squared_error = 0.0<br/>samples = 1<br/>value = 540000.0>, fillcolor="#fdf7f3"] ;
291 -> 292 ;
293 [label=<squared_error = 0.0<br/>samples = 2<br/>value = 700000.0>, fillcolor="#fdf5ef"] ;
291 -> 293 ;
294 [label=<x0_LPG &le; 10620.0<br/>squared_error = 8517346938.776<br/>samples = 7<br/>value = 690714.286>, fillcolor="#fdf5ef"] ;
282 -> 294 ;
295 [label=<x0_Tata &le; 0.5<br/>squared_error = 138888888.889<br/>samples = 3<br/>value = 591666.667>, fillcolor="#fdf6f2"] ;
294 -> 295 ;
296 [label=<squared_error = 0.0<br/>samples = 2<br/>value = 600000.0>, fillcolor="#fdf6f1"] ;
295 -> 296 ;
297 [label=<squared_error = 0.0<br/>samples = 1<br/>value = 575000.0>, fillcolor="#fdf7f2"] ;
295 -> 297 ;
298 [label=<x0_LPG &le; 15500.0<br/>squared_error = 1925000000.0<br/>samples = 4<br/>value = 765000.0>, fillcolor="#fdf4ed"] ;
294 -> 298 ;
299 [label=<x0_Suzuki &le; 0.5<br/>squared_error = 688888888.889<br/>samples = 3<br/>value = 786666.667>, fillcolor="#fdf3ed"] ;
298 -> 299 ;
300 [label=<x0_LPG &le; 13120.0<br/>squared_error = 625000000.0<br/>samples = 2<br/>value = 775000.0>, fillcolor="#fdf4ed"] ;
299 -> 300 ;
301 [label=<squared_error = 0.0<br/>samples = 1<br/>value = 800000.0>, fillcolor="#fdf3ed"] ;
300 -> 301 ;
302 [label=<squared_error = 0.0<br/>samples = 1<br/>value = 750000.0>, fillcolor="#fdf4ee"] ;
300 -> 302 ;
303 [label=<squared_error = 0.0<br/>samples = 1<br/>value = 810000.0>, fillcolor="#fdf3ec"] ;
299 -> 303 ;
304 [label=<squared_error = 0.0<br/>samples = 1<br/>value = 700000.0>, fillcolor="#fdf5ef"] ;
298 -> 304 ;
305 [label=<x0_CNG &le; 2016.5<br/>squared_error = 35666000000.0<br/>samples = 5<br/>value = 808000.0>, fillcolor="#fdf3ec"] ;
281 -> 305 ;
306 [label=<squared_error = 0.0<br/>samples = 1<br/>value = 495000.0>, fillcolor="#fef8f4"] ;
305 -> 306 ;
307 [label=<x0_Ford &le; 0.5<br/>squared_error = 13967187500.0<br/>samples = 4<br/>value = 886250.0>, fillcolor="#fcf2ea"] ;
305 -> 307 ;
308 [label=<x0_CNG &le; 2017.5<br/>squared_error = 3205555555.555<br/>samples = 3<br/>value = 948333.333>, fillcolor="#fcf1e9"] ;
307 -> 308 ;
309 [label=<squared_error = 0.0<br/>samples = 1<br/>value = 1025000.0>, fillcolor="#fcf0e7"] ;
308 -> 309 ;
310 [label=<x0_Honda &le; 0.5<br/>squared_error = 400000000.0<br/>samples = 2<br/>value = 910000.0>, fillcolor="#fcf2ea"] ;
308 -> 310 ;
311 [label=<squared_error = 0.0<br/>samples = 1<br/>value = 890000.0>, fillcolor="#fcf2ea"] ;
310 -> 311 ;
312 [label=<squared_error = 0.0<br/>samples = 1<br/>value = 930000.0>, fillcolor="#fcf1e9"] ;
310 -> 312 ;
313 [label=<squared_error = 0.0<br/>samples = 1<br/>value = 700000.0>, fillcolor="#fdf5ef"] ;
307 -> 313 ;
314 [label=<x0_CNG &le; 2017.5<br/>squared_error = 12656137500.25<br/>samples = 2<br/>value = 322499.5>, fillcolor="#fefbf8"] ;
280 -> 314 ;
315 [label=<squared_error = 0.0<br/>samples = 1<br/>value = 210000.0>, fillcolor="#fefcfb"] ;
314 -> 315 ;
316 [label=<squared_error = 0.0<br/>samples = 1<br/>value = 434999.0>, fillcolor="#fef9f5"] ;
314 -> 316 ;
317 [label=<x0_LPG &le; 39000.0<br/>squared_error = 19421714807.433<br/>samples = 71<br/>value = 367929.521>, fillcolor="#fefaf7"] ;
279 -> 317 ;
318 [label=<x0_LPG &le; 35500.0<br/>squared_error = 15661142397.952<br/>samples = 34<br/>value = 415470.559>, fillcolor="#fef9f6"] ;
317 -> 318 ;
319 [label=<x0_Hyundai &le; 0.5<br/>squared_error = 14654870304.718<br/>samples = 32<br/>value = 404874.969>, fillcolor="#fef9f6"] ;
318 -> 319 ;
320 [label=<x0_Skoda &le; 0.5<br/>squared_error = 9487016528.926<br/>samples = 22<br/>value = 375272.727>, fillcolor="#fefaf7"] ;
319 -> 320 ;
321 [label=<x0_LPG &le; 24500.0<br/>squared_error = 6442698412.698<br/>samples = 21<br/>value = 362666.667>, fillcolor="#fefaf7"] ;
320 -> 321 ;
322 [label=<x0_CNG &le; 2014.5<br/>squared_error = 7467135802.469<br/>samples = 9<br/>value = 404555.556>, fillcolor="#fef9f6"] ;
321 -> 322 ;
323 [label=<squared_error = 0.0<br/>samples = 1<br/>value = 600000.0>, fillcolor="#fdf6f1"] ;
322 -> 323 ;
324 [label=<x0_Mitsubishi &le; 0.5<br/>squared_error = 3028859375.0<br/>samples = 8<br/>value = 380125.0>, fillcolor="#fefaf7"] ;
322 -> 324 ;
325 [label=<x0_CNG &le; 2017.5<br/>squared_error = 1481551020.408<br/>samples = 7<br/>value = 395857.143>, fillcolor="#fefaf6"] ;
324 -> 325 ;
326 [label=<x0_Honda &le; 0.5<br/>squared_error = 217687500.0<br/>samples = 4<br/>value = 372750.0>, fillcolor="#fefaf7"] ;
325 -> 326 ;
327 [label=<x0_CNG &le; 2016.0<br/>squared_error = 25000000.0<br/>samples = 2<br/>value = 385000.0>, fillcolor="#fefaf7"] ;
326 -> 327 ;
328 [label=<squared_error = 0.0<br/>samples = 1<br/>value = 380000.0>, fillcolor="#fefaf7"] ;
327 -> 328 ;
329 [label=<squared_error = 0.0<br/>samples = 1<br/>value = 390000.0>, fillcolor="#fefaf7"] ;
327 -> 329 ;
330 [label=<x0_Automatic &le; 0.5<br/>squared_error = 110250000.0<br/>samples = 2<br/>value = 360500.0>, fillcolor="#fefaf7"] ;
326 -> 330 ;
331 [label=<squared_error = 0.0<br/>samples = 1<br/>value = 371000.0>, fillcolor="#fefaf7"] ;
330 -> 331 ;
332 [label=<squared_error = 0.0<br/>samples = 1<br/>value = 350000.0>, fillcolor="#fefaf8"] ;
330 -> 332 ;
333 [label=<x0_Honda &le; 0.5<br/>squared_error = 1505555555.556<br/>samples = 3<br/>value = 426666.667>, fillcolor="#fef9f6"] ;
325 -> 333 ;
334 [label=<x0_LPG &le; 20877.5<br/>squared_error = 506250000.0<br/>samples = 2<br/>value = 402500.0>, fillcolor="#fef9f6"] ;
333 -> 334 ;
335 [label=<squared_error = 0.0<br/>samples = 1<br/>value = 425000.0>, fillcolor="#fef9f6"] ;
334 -> 335 ;
336 [label=<squared_error = 0.0<br/>samples = 1<br/>value = 380000.0>, fillcolor="#fefaf7"] ;
334 -> 336 ;
337 [label=<squared_error = 0.0<br/>samples = 1<br/>value = 475000.0>, fillcolor="#fef8f4"] ;
333 -> 337 ;
338 [label=<squared_error = 0.0<br/>samples = 1<br/>value = 270000.0>, fillcolor="#fefbf9"] ;
324 -> 338 ;
339 [label=<x0_CNG &le; 2016.5<br/>squared_error = 3371354166.667<br/>samples = 12<br/>value = 331250.0>, fillcolor="#fefbf8"] ;
321 -> 339 ;
340 [label=<x0_CNG &le; 2014.5<br/>squared_error = 1746000000.0<br/>samples = 5<br/>value = 282000.0>, fillcolor="#fefbf9"] ;
339 -> 340 ;
341 [label=<x0_Suzuki &le; 0.5<br/>squared_error = 625000000.0<br/>samples = 2<br/>value = 325000.0>, fillcolor="#fefbf8"] ;
340 -> 341 ;
342 [label=<squared_error = 0.0<br/>samples = 1<br/>value = 350000.0>, fillcolor="#fefaf8"] ;
341 -> 342 ;
343 [label=<squared_error = 0.0<br/>samples = 1<br/>value = 300000.0>, fillcolor="#fefbf9"] ;
341 -> 343 ;
344 [label=<x0_CNG &le; 2015.5<br/>squared_error = 438888888.889<br/>samples = 3<br/>value = 253333.333>, fillcolor="#fefcfa"] ;
340 -> 344 ;
345 [label=<x0_Suzuki &le; 0.5<br/>squared_error = 56250000.0<br/>samples = 2<br/>value = 267500.0>, fillcolor="#fefcfa"] ;
344 -> 345 ;
346 [label=<squared_error = 0.0<br/>samples = 1<br/>value = 260000.0>, fillcolor="#fefcfa"] ;
345 -> 346 ;
347 [label=<squared_error = 0.0<br/>samples = 1<br/>value = 275000.0>, fillcolor="#fefbf9"] ;
345 -> 347 ;
348 [label=<squared_error = 0.0<br/>samples = 1<br/>value = 225000.0>, fillcolor="#fefcfb"] ;
344 -> 348 ;
349 [label=<x0_Tata &le; 0.5<br/>squared_error = 1562244897.959<br/>samples = 7<br/>value = 366428.571>, fillcolor="#fefaf7"] ;
339 -> 349 ;
350 [label=<x0_CNG &le; 2017.5<br/>squared_error = 1036805555.556<br/>samples = 6<br/>value = 355833.333>, fillcolor="#fefaf7"] ;
349 -> 350 ;
351 [label=<x0_LPG &le; 27500.0<br/>squared_error = 466666666.667<br/>samples = 3<br/>value = 380000.0>, fillcolor="#fefaf7"] ;
350 -> 351 ;
352 [label=<squared_error = 0.0<br/>samples = 1<br/>value = 350000.0>, fillcolor="#fefaf8"] ;
351 -> 352 ;
353 [label=<x0_Toyota &le; 0.5<br/>squared_error = 25000000.0<br/>samples = 2<br/>value = 395000.0>, fillcolor="#fefaf6"] ;
351 -> 353 ;
354 [label=<squared_error = 0.0<br/>samples = 1<br/>value = 400000.0>, fillcolor="#fef9f6"] ;
353 -> 354 ;
355 [label=<squared_error = 0.0<br/>samples = 1<br/>value = 390000.0>, fillcolor="#fefaf7"] ;
353 -> 355 ;
356 [label=<x0_LPG &le; 27250.0<br/>squared_error = 438888888.889<br/>samples = 3<br/>value = 331666.667>, fillcolor="#fefbf8"] ;
350 -> 356 ;
357 [label=<squared_error = 0.0<br/>samples = 1<br/>value = 360000.0>, fillcolor="#fefaf7"] ;
356 -> 357 ;
358 [label=<x0_Toyota &le; 0.5<br/>squared_error = 56250000.0<br/>samples = 2<br/>value = 317500.0>, fillcolor="#fefbf8"] ;
356 -> 358 ;
359 [label=<squared_error = 0.0<br/>samples = 1<br/>value = 310000.0>, fillcolor="#fefbf8"] ;
358 -> 359 ;
360 [label=<squared_error = 0.0<br/>samples = 1<br/>value = 325000.0>, fillcolor="#fefbf8"] ;
358 -> 360 ;
361 [label=<squared_error = 0.0<br/>samples = 1<br/>value = 430000.0>, fillcolor="#fef9f6"] ;
349 -> 361 ;
362 [label=<squared_error = 0.0<br/>samples = 1<br/>value = 640000.0>, fillcolor="#fdf6f0"] ;
320 -> 362 ;
363 [label=<จำนวนเจ้าของรถในอดีต &le; 1.5<br/>squared_error = 19855048000.09<br/>samples = 10<br/>value = 469999.9>, fillcolor="#fef8f5"] ;
319 -> 363 ;
364 [label=<x0_CNG &le; 2017.0<br/>squared_error = 16498011020.531<br/>samples = 7<br/>value = 411428.429>, fillcolor="#fef9f6"] ;
363 -> 364 ;
365 [label=<x0_LPG &le; 27500.0<br/>squared_error = 11666666666.667<br/>samples = 3<br/>value = 500000.0>, fillcolor="#fef8f4"] ;
364 -> 365 ;
366 [label=<squared_error = 10000000000.0<br/>samples = 2<br/>value = 450000.0>, fillcolor="#fef9f5"] ;
365 -> 366 ;
367 [label=<squared_error = 0.0<br/>samples = 1<br/>value = 600000.0>, fillcolor="#fdf6f1"] ;
365 -> 367 ;
368 [label=<x0_LPG &le; 31500.0<br/>squared_error = 9825057500.188<br/>samples = 4<br/>value = 344999.75>, fillcolor="#fefaf8"] ;
364 -> 368 ;
369 [label=<x0_CNG &le; 2018.5<br/>squared_error = 2422264444.667<br/>samples = 3<br/>value = 293333.0>, fillcolor="#fefbf9"] ;
368 -> 369 ;
370 [label=<x0_LPG &le; 30500.0<br/>squared_error = 1225035000.25<br/>samples = 2<br/>value = 264999.5>, fillcolor="#fefcfa"] ;
369 -> 370 ;
371 [label=<squared_error = 0.0<br/>samples = 1<br/>value = 229999.0>, fillcolor="#fefcfa"] ;
370 -> 371 ;
372 [label=<squared_error = 0.0<br/>samples = 1<br/>value = 300000.0>, fillcolor="#fefbf9"] ;
370 -> 372 ;
373 [label=<squared_error = 0.0<br/>samples = 1<br/>value = 350000.0>, fillcolor="#fefaf8"] ;
369 -> 373 ;
374 [label=<squared_error = 0.0<br/>samples = 1<br/>value = 500000.0>, fillcolor="#fef8f4"] ;
368 -> 374 ;
375 [label=<x0_CNG &le; 2017.5<br/>squared_error = 1005555555.556<br/>samples = 3<br/>value = 606666.667>, fillcolor="#fdf6f1"] ;
363 -> 375 ;
376 [label=<x0_LPG &le; 26550.0<br/>squared_error = 100000000.0<br/>samples = 2<br/>value = 585000.0>, fillcolor="#fdf7f2"] ;
375 -> 376 ;
377 [label=<squared_error = 0.0<br/>samples = 1<br/>value = 575000.0>, fillcolor="#fdf7f2"] ;
376 -> 377 ;
378 [label=<squared_error = 0.0<br/>samples = 1<br/>value = 595000.0>, fillcolor="#fdf6f2"] ;
376 -> 378 ;
379 [label=<squared_error = 0.0<br/>samples = 1<br/>value = 650000.0>, fillcolor="#fdf6f0"] ;
375 -> 379 ;
380 [label=<x0_LPG &le; 37000.0<br/>squared_error = 1225000000.0<br/>samples = 2<br/>value = 585000.0>, fillcolor="#fdf7f2"] ;
318 -> 380 ;
381 [label=<squared_error = 0.0<br/>samples = 1<br/>value = 620000.0>, fillcolor="#fdf6f1"] ;
380 -> 381 ;
382 [label=<squared_error = 0.0<br/>samples = 1<br/>value = 550000.0>, fillcolor="#fdf7f3"] ;
380 -> 382 ;
383 [label=<x0_LPG &le; 48000.0<br/>squared_error = 18891983142.514<br/>samples = 37<br/>value = 324243.162>, fillcolor="#fefbf8"] ;
317 -> 383 ;
384 [label=<x0_LPG &le; 40951.5<br/>squared_error = 3037054791.227<br/>samples = 15<br/>value = 252133.2>, fillcolor="#fefcfa"] ;
383 -> 384 ;
385 [label=<x0_Chevrolet &le; 0.5<br/>squared_error = 2902859593.859<br/>samples = 8<br/>value = 230874.875>, fillcolor="#fefcfa"] ;
384 -> 385 ;
386 [label=<x0_ดีเซล &le; 0.5<br/>squared_error = 2020690489.918<br/>samples = 7<br/>value = 218142.714>, fillcolor="#fefcfb"] ;
385 -> 386 ;
387 [label=<x0_CNG &le; 2015.5<br/>squared_error = 1564575833.472<br/>samples = 6<br/>value = 207499.833>, fillcolor="#fefcfb"] ;
386 -> 387 ;
388 [label=<x0_CNG &le; 2014.5<br/>squared_error = 435997200.16<br/>samples = 5<br/>value = 222999.8>, fillcolor="#fefcfb"] ;
387 -> 388 ;
389 [label=<x0_Hyundai &le; 0.5<br/>squared_error = 100000000.0<br/>samples = 2<br/>value = 200000.0>, fillcolor="#fefdfb"] ;
388 -> 389 ;
390 [label=<squared_error = 0.0<br/>samples = 1<br/>value = 210000.0>, fillcolor="#fefcfb"] ;
389 -> 390 ;
391 [label=<squared_error = 0.0<br/>samples = 1<br/>value = 190000.0>, fillcolor="#fffdfb"] ;
389 -> 391 ;
392 [label=<x0_Mitsubishi &le; 0.5<br/>squared_error = 72227778.0<br/>samples = 3<br/>value = 238333.0>, fillcolor="#fefcfa"] ;
388 -> 392 ;
393 [label=<x0_Manual &le; 0.5<br/>squared_error = 6252500.25<br/>samples = 2<br/>value = 232499.5>, fillcolor="#fefcfa"] ;
392 -> 393 ;
394 [label=<squared_error = 0.0<br/>samples = 1<br/>value = 229999.0>, fillcolor="#fefcfa"] ;
393 -> 394 ;
395 [label=<squared_error = 0.0<br/>samples = 1<br/>value = 235000.0>, fillcolor="#fefcfa"] ;
393 -> 395 ;
396 [label=<squared_error = 0.0<br/>samples = 1<br/>value = 250000.0>, fillcolor="#fefcfa"] ;
392 -> 396 ;
397 [label=<squared_error = 0.0<br/>samples = 1<br/>value = 130000.0>, fillcolor="#fffefd"] ;
387 -> 397 ;
398 [label=<squared_error = 0.0<br/>samples = 1<br/>value = 282000.0>, fillcolor="#fefbf9"] ;
386 -> 398 ;
399 [label=<squared_error = 0.0<br/>samples = 1<br/>value = 320000.0>, fillcolor="#fefbf8"] ;
385 -> 399 ;
400 [label=<x0_Automatic &le; 0.5<br/>squared_error = 2083686734.816<br/>samples = 7<br/>value = 276428.429>, fillcolor="#fefbf9"] ;
384 -> 400 ;
401 [label=<x0_Ford &le; 0.5<br/>squared_error = 2772222222.222<br/>samples = 3<br/>value = 296666.667>, fillcolor="#fefbf9"] ;
400 -> 401 ;
402 [label=<x0_LPG &le; 42000.0<br/>squared_error = 2025000000.0<br/>samples = 2<br/>value = 270000.0>, fillcolor="#fefbf9"] ;
401 -> 402 ;
403 [label=<squared_error = 0.0<br/>samples = 1<br/>value = 315000.0>, fillcolor="#fefbf8"] ;
402 -> 403 ;
404 [label=<squared_error = 0.0<br/>samples = 1<br/>value = 225000.0>, fillcolor="#fefcfb"] ;
402 -> 404 ;
405 [label=<squared_error = 0.0<br/>samples = 1<br/>value = 350000.0>, fillcolor="#fefaf8"] ;
401 -> 405 ;
406 [label=<จำนวนเจ้าของรถในอดีต &le; 1.5<br/>squared_error = 1029703125.188<br/>samples = 4<br/>value = 261249.75>, fillcolor="#fefcfa"] ;
400 -> 406 ;
407 [label=<x0_CNG &le; 2016.0<br/>squared_error = 88897778.0<br/>samples = 3<br/>value = 243333.0>, fillcolor="#fefcfa"] ;
406 -> 407 ;
408 [label=<squared_error = 0.0<br/>samples = 1<br/>value = 229999.0>, fillcolor="#fefcfa"] ;
407 -> 408 ;
409 [label=<squared_error = 0.0<br/>samples = 2<br/>value = 250000.0>, fillcolor="#fefcfa"] ;
407 -> 409 ;
410 [label=<squared_error = 0.0<br/>samples = 1<br/>value = 315000.0>, fillcolor="#fefbf8"] ;
406 -> 410 ;
411 [label=<x0_Tata &le; 0.5<br/>squared_error = 23739527500.043<br/>samples = 22<br/>value = 373409.045>, fillcolor="#fefaf7"] ;
383 -> 411 ;
412 [label=<x0_Nissan &le; 0.5<br/>squared_error = 23363908333.386<br/>samples = 18<br/>value = 404999.944>, fillcolor="#fef9f6"] ;
411 -> 412 ;
413 [label=<x0_CNG &le; 2014.5<br/>squared_error = 20999672872.028<br/>samples = 17<br/>value = 390588.176>, fillcolor="#fefaf7"] ;
412 -> 413 ;
414 [label=<จำนวนเจ้าของรถในอดีต &le; 2.5<br/>squared_error = 605576666.889<br/>samples = 3<br/>value = 261666.333>, fillcolor="#fefcfa"] ;
413 -> 414 ;
415 [label=<x0_Suzuki &le; 0.5<br/>squared_error = 156250000.0<br/>samples = 2<br/>value = 277500.0>, fillcolor="#fefbf9"] ;
414 -> 415 ;
416 [label=<squared_error = 0.0<br/>samples = 1<br/>value = 265000.0>, fillcolor="#fefcfa"] ;
415 -> 416 ;
417 [label=<squared_error = 0.0<br/>samples = 1<br/>value = 290000.0>, fillcolor="#fefbf9"] ;
415 -> 417 ;
418 [label=<squared_error = 0.0<br/>samples = 1<br/>value = 229999.0>, fillcolor="#fefcfa"] ;
414 -> 418 ;
419 [label=<x0_LPG &le; 74000.0<br/>squared_error = 21045025510.204<br/>samples = 14<br/>value = 418214.286>, fillcolor="#fef9f6"] ;
413 -> 419 ;
420 [label=<x0_CNG &le; 2015.5<br/>squared_error = 22477734375.0<br/>samples = 8<br/>value = 489375.0>, fillcolor="#fef8f4"] ;
419 -> 420 ;
421 [label=<x0_Manual &le; 0.5<br/>squared_error = 28888888888.889<br/>samples = 3<br/>value = 366666.667>, fillcolor="#fefaf7"] ;
420 -> 421 ;
422 [label=<x0_LPG &le; 60000.0<br/>squared_error = 2500000000.0<br/>samples = 2<br/>value = 250000.0>, fillcolor="#fefcfa"] ;
421 -> 422 ;
423 [label=<squared_error = 0.0<br/>samples = 1<br/>value = 300000.0>, fillcolor="#fefbf9"] ;
422 -> 423 ;
424 [label=<squared_error = 0.0<br/>samples = 1<br/>value = 200000.0>, fillcolor="#fefdfb"] ;
422 -> 424 ;
425 [label=<squared_error = 0.0<br/>samples = 1<br/>value = 600000.0>, fillcolor="#fdf6f1"] ;
421 -> 425 ;
426 [label=<x0_Suzuki &le; 0.5<br/>squared_error = 4176000000.0<br/>samples = 5<br/>value = 563000.0>, fillcolor="#fdf7f2"] ;
420 -> 426 ;
427 [label=<x0_Hyundai &le; 0.5<br/>squared_error = 25000000.0<br/>samples = 2<br/>value = 495000.0>, fillcolor="#fef8f4"] ;
426 -> 427 ;
428 [label=<squared_error = 0.0<br/>samples = 1<br/>value = 490000.0>, fillcolor="#fef8f4"] ;
427 -> 428 ;
429 [label=<squared_error = 0.0<br/>samples = 1<br/>value = 500000.0>, fillcolor="#fef8f4"] ;
427 -> 429 ;
430 [label=<x0_LPG &le; 65000.0<br/>squared_error = 1805555555.555<br/>samples = 3<br/>value = 608333.333>, fillcolor="#fdf6f1"] ;
426 -> 430 ;
431 [label=<x0_Automatic &le; 0.5<br/>squared_error = 1406250000.0<br/>samples = 2<br/>value = 587500.0>, fillcolor="#fdf7f2"] ;
430 -> 431 ;
432 [label=<squared_error = 0.0<br/>samples = 1<br/>value = 625000.0>, fillcolor="#fdf6f1"] ;
431 -> 432 ;
433 [label=<squared_error = 0.0<br/>samples = 1<br/>value = 550000.0>, fillcolor="#fdf7f3"] ;
431 -> 433 ;
434 [label=<squared_error = 0.0<br/>samples = 1<br/>value = 650000.0>, fillcolor="#fdf6f0"] ;
430 -> 434 ;
435 [label=<x0_CNG &le; 2017.5<br/>squared_error = 3380555555.556<br/>samples = 6<br/>value = 323333.333>, fillcolor="#fefbf8"] ;
419 -> 435 ;
436 [label=<x0_CNG &le; 2016.0<br/>squared_error = 456250000.0<br/>samples = 4<br/>value = 362500.0>, fillcolor="#fefaf7"] ;
435 -> 436 ;
437 [label=<squared_error = 0.0<br/>samples = 1<br/>value = 390000.0>, fillcolor="#fefaf7"] ;
436 -> 437 ;
438 [label=<x0_Hyundai &le; 0.5<br/>squared_error = 272222222.222<br/>samples = 3<br/>value = 353333.333>, fillcolor="#fefaf7"] ;
436 -> 438 ;
439 [label=<squared_error = 0.0<br/>samples = 2<br/>value = 365000.0>, fillcolor="#fefaf7"] ;
438 -> 439 ;
440 [label=<squared_error = 0.0<br/>samples = 1<br/>value = 330000.0>, fillcolor="#fefbf8"] ;
438 -> 440 ;
441 [label=<x0_CNG &le; 2019.0<br/>squared_error = 25000000.0<br/>samples = 2<br/>value = 245000.0>, fillcolor="#fefcfa"] ;
435 -> 441 ;
442 [label=<squared_error = 0.0<br/>samples = 1<br/>value = 250000.0>, fillcolor="#fefcfa"] ;
441 -> 442 ;
443 [label=<squared_error = 0.0<br/>samples = 1<br/>value = 240000.0>, fillcolor="#fefcfa"] ;
441 -> 443 ;
444 [label=<squared_error = 0.0<br/>samples = 1<br/>value = 650000.0>, fillcolor="#fdf6f0"] ;
412 -> 444 ;
445 [label=<x0_Automatic &le; 0.5<br/>squared_error = 729687500.0<br/>samples = 4<br/>value = 231250.0>, fillcolor="#fefcfa"] ;
411 -> 445 ;
446 [label=<squared_error = 0.0<br/>samples = 1<br/>value = 185000.0>, fillcolor="#fffdfc"] ;
445 -> 446 ;
447 [label=<x0_LPG &le; 80000.0<br/>squared_error = 22222222.222<br/>samples = 3<br/>value = 246666.667>, fillcolor="#fefcfa"] ;
445 -> 447 ;
448 [label=<squared_error = 0.0<br/>samples = 1<br/>value = 240000.0>, fillcolor="#fefcfa"] ;
447 -> 448 ;
449 [label=<squared_error = 0.0<br/>samples = 2<br/>value = 250000.0>, fillcolor="#fefcfa"] ;
447 -> 449 ;
450 [label=<x0_Toyota &le; 0.5<br/>squared_error = 91858472280.366<br/>samples = 73<br/>value = 730424.644>, fillcolor="#fdf4ee"] ;
278 -> 450 ;
451 [label=<x0_LPG &le; 36541.5<br/>squared_error = 65509327654.926<br/>samples = 65<br/>value = 681861.523>, fillcolor="#fdf5ef"] ;
450 -> 451 ;
452 [label=<x0_Mahindra &le; 0.5<br/>squared_error = 77295146814.404<br/>samples = 19<br/>value = 913894.737>, fillcolor="#fcf1ea"] ;
451 -> 452 ;
453 [label=<x0_LPG &le; 6500.0<br/>squared_error = 37248204081.633<br/>samples = 14<br/>value = 800285.714>, fillcolor="#fdf3ed"] ;
452 -> 453 ;
454 [label=<x0_LPG &le; 4300.0<br/>squared_error = 11850000000.0<br/>samples = 3<br/>value = 1045000.0>, fillcolor="#fcefe7"] ;
453 -> 454 ;
455 [label=<x0_Chevrolet &le; 0.5<br/>squared_error = 900000000.0<br/>samples = 2<br/>value = 970000.0>, fillcolor="#fcf1e8"] ;
454 -> 455 ;
456 [label=<squared_error = 0.0<br/>samples = 1<br/>value = 940000.0>, fillcolor="#fcf1e9"] ;
455 -> 456 ;
457 [label=<squared_error = 0.0<br/>samples = 1<br/>value = 1000000.0>, fillcolor="#fcf0e8"] ;
455 -> 457 ;
458 [label=<squared_error = 0.0<br/>samples = 1<br/>value = 1195000.0>, fillcolor="#fbede3"] ;
454 -> 458 ;
459 [label=<x0_Volkswagen &le; 0.5<br/>squared_error = 23388429752.066<br/>samples = 11<br/>value = 733545.455>, fillcolor="#fdf4ee"] ;
453 -> 459 ;
460 [label=<x0_LPG &le; 30000.0<br/>squared_error = 19727490000.0<br/>samples = 10<br/>value = 756900.0>, fillcolor="#fdf4ee"] ;
459 -> 460 ;
461 [label=<x0_LPG &le; 24500.0<br/>squared_error = 20198000000.0<br/>samples = 8<br/>value = 730500.0>, fillcolor="#fdf4ee"] ;
460 -> 461 ;
462 [label=<x0_Automatic &le; 0.5<br/>squared_error = 9930560000.0<br/>samples = 5<br/>value = 765800.0>, fillcolor="#fdf4ed"] ;
461 -> 462 ;
463 [label=<x0_CNG &le; 2017.5<br/>squared_error = 1444000000.0<br/>samples = 2<br/>value = 662000.0>, fillcolor="#fdf5f0"] ;
462 -> 463 ;
464 [label=<squared_error = 0.0<br/>samples = 1<br/>value = 700000.0>, fillcolor="#fdf5ef"] ;
463 -> 464 ;
465 [label=<squared_error = 0.0<br/>samples = 1<br/>value = 624000.0>, fillcolor="#fdf6f1"] ;
463 -> 465 ;
466 [label=<x0_CNG &le; 2018.5<br/>squared_error = 3616666666.667<br/>samples = 3<br/>value = 835000.0>, fillcolor="#fcf3ec"] ;
462 -> 466 ;
467 [label=<x0_LPG &le; 17000.0<br/>squared_error = 625000000.0<br/>samples = 2<br/>value = 875000.0>, fillcolor="#fcf2eb"] ;
466 -> 467 ;
468 [label=<squared_error = 0.0<br/>samples = 1<br/>value = 850000.0>, fillcolor="#fcf2eb"] ;
467 -> 468 ;
469 [label=<squared_error = 0.0<br/>samples = 1<br/>value = 900000.0>, fillcolor="#fcf2ea"] ;
467 -> 469 ;
470 [label=<squared_error = 0.0<br/>samples = 1<br/>value = 755000.0>, fillcolor="#fdf4ee"] ;
466 -> 470 ;
471 [label=<x0_CNG &le; 2018.5<br/>squared_error = 31772222222.222<br/>samples = 3<br/>value = 671666.667>, fillcolor="#fdf5f0"] ;
461 -> 471 ;
472 [label=<squared_error = 47306250000.0<br/>samples = 2<br/>value = 682500.0>, fillcolor="#fdf5ef"] ;
471 -> 472 ;
473 [label=<squared_error = 0.0<br/>samples = 1<br/>value = 650000.0>, fillcolor="#fdf6f0"] ;
471 -> 473 ;
474 [label=<x0_Suzuki &le; 0.5<br/>squared_error = 3906250000.0<br/>samples = 2<br/>value = 862500.0>, fillcolor="#fcf2eb"] ;
460 -> 474 ;
475 [label=<squared_error = 0.0<br/>samples = 1<br/>value = 925000.0>, fillcolor="#fcf1e9"] ;
474 -> 475 ;
476 [label=<squared_error = 0.0<br/>samples = 1<br/>value = 800000.0>, fillcolor="#fdf3ed"] ;
474 -> 476 ;
477 [label=<squared_error = 0.0<br/>samples = 1<br/>value = 500000.0>, fillcolor="#fef8f4"] ;
459 -> 477 ;
478 [label=<x0_LPG &le; 30000.0<br/>squared_error = 52096000000.0<br/>samples = 5<br/>value = 1232000.0>, fillcolor="#fbede2"] ;
452 -> 478 ;
479 [label=<x0_CNG &le; 2017.5<br/>squared_error = 21875000000.0<br/>samples = 4<br/>value = 1325000.0>, fillcolor="#fbebe0"] ;
478 -> 479 ;
480 [label=<squared_error = 0.0<br/>samples = 1<br/>value = 1500000.0>, fillcolor="#fae8db"] ;
479 -> 480 ;
481 [label=<x0_CNG &le; 2019.0<br/>squared_error = 15555555555.555<br/>samples = 3<br/>value = 1266666.667>, fillcolor="#fbece1"] ;
479 -> 481 ;
482 [label=<x0_LPG &le; 15000.0<br/>squared_error = 10000000000.0<br/>samples = 2<br/>value = 1200000.0>, fillcolor="#fbede3"] ;
481 -> 482 ;
483 [label=<squared_error = 0.0<br/>samples = 1<br/>value = 1300000.0>, fillcolor="#fbebe0"] ;
482 -> 483 ;
484 [label=<squared_error = 0.0<br/>samples = 1<br/>value = 1100000.0>, fillcolor="#fcefe5"] ;
482 -> 484 ;
485 [label=<squared_error = 0.0<br/>samples = 1<br/>value = 1400000.0>, fillcolor="#fbeade"] ;
481 -> 485 ;
486 [label=<squared_error = 0.0<br/>samples = 1<br/>value = 860000.0>, fillcolor="#fcf2eb"] ;
478 -> 486 ;
487 [label=<x0_CNG &le; 2015.5<br/>squared_error = 29217985441.42<br/>samples = 46<br/>value = 586021.717>, fillcolor="#fdf7f2"] ;
451 -> 487 ;
488 [label=<x0_Honda &le; 0.5<br/>squared_error = 10018869565.217<br/>samples = 23<br/>value = 483000.0>, fillcolor="#fef8f4"] ;
487 -> 488 ;
489 [label=<x0_Manual &le; 0.5<br/>squared_error = 8550816608.997<br/>samples = 17<br/>value = 454647.059>, fillcolor="#fef9f5"] ;
488 -> 489 ;
490 [label=<x0_Mahindra &le; 0.5<br/>squared_error = 7868652343.75<br/>samples = 16<br/>value = 446187.5>, fillcolor="#fef9f5"] ;
489 -> 490 ;
491 [label=<x0_Fiat &le; 0.5<br/>squared_error = 7551262222.222<br/>samples = 15<br/>value = 438933.333>, fillcolor="#fef9f5"] ;
490 -> 491 ;
492 [label=<x0_LPG &le; 85000.0<br/>squared_error = 7485346938.776<br/>samples = 14<br/>value = 445285.714>, fillcolor="#fef9f5"] ;
491 -> 492 ;
493 [label=<x0_Hyundai &le; 0.5<br/>squared_error = 6880138888.889<br/>samples = 6<br/>value = 474833.333>, fillcolor="#fef8f4"] ;
492 -> 493 ;
494 [label=<x0_LPG &le; 79675.0<br/>squared_error = 4870187500.0<br/>samples = 4<br/>value = 512250.0>, fillcolor="#fdf8f4"] ;
493 -> 494 ;
495 [label=<x0_LPG &le; 69675.0<br/>squared_error = 843555555.556<br/>samples = 3<br/>value = 474666.667>, fillcolor="#fef8f4"] ;
494 -> 495 ;
496 [label=<x0_LPG &le; 54500.0<br/>squared_error = 25000000.0<br/>samples = 2<br/>value = 495000.0>, fillcolor="#fef8f4"] ;
495 -> 496 ;
497 [label=<squared_error = 0.0<br/>samples = 1<br/>value = 500000.0>, fillcolor="#fef8f4"] ;
496 -> 497 ;
498 [label=<squared_error = 0.0<br/>samples = 1<br/>value = 490000.0>, fillcolor="#fef8f4"] ;
496 -> 498 ;
499 [label=<squared_error = 0.0<br/>samples = 1<br/>value = 434000.0>, fillcolor="#fef9f5"] ;
495 -> 499 ;
500 [label=<squared_error = 0.0<br/>samples = 1<br/>value = 625000.0>, fillcolor="#fdf6f1"] ;
494 -> 500 ;
501 [label=<จำนวนเจ้าของรถในอดีต &le; 1.5<br/>squared_error = 2500000000.0<br/>samples = 2<br/>value = 400000.0>, fillcolor="#fef9f6"] ;
493 -> 501 ;
502 [label=<squared_error = 0.0<br/>samples = 1<br/>value = 450000.0>, fillcolor="#fef9f5"] ;
501 -> 502 ;
503 [label=<squared_error = 0.0<br/>samples = 1<br/>value = 350000.0>, fillcolor="#fefaf8"] ;
501 -> 503 ;
504 [label=<x0_LPG &le; 95000.0<br/>squared_error = 6793359375.0<br/>samples = 8<br/>value = 423125.0>, fillcolor="#fef9f6"] ;
492 -> 504 ;
505 [label=<squared_error = 6400000000.0<br/>samples = 2<br/>value = 320000.0>, fillcolor="#fefbf8"] ;
504 -> 505 ;
506 [label=<x0_Tata &le; 0.5<br/>squared_error = 2197916666.667<br/>samples = 6<br/>value = 457500.0>, fillcolor="#fef9f5"] ;
504 -> 506 ;
507 [label=<จำนวนเจ้าของรถในอดีต &le; 2.5<br/>squared_error = 1844000000.0<br/>samples = 5<br/>value = 469000.0>, fillcolor="#fef8f5"] ;
506 -> 507 ;
508 [label=<x0_LPG &le; 110000.0<br/>squared_error = 817187500.0<br/>samples = 4<br/>value = 486250.0>, fillcolor="#fef8f4"] ;
507 -> 508 ;
509 [label=<squared_error = 0.0<br/>samples = 1<br/>value = 525000.0>, fillcolor="#fdf8f3"] ;
508 -> 509 ;
510 [label=<x0_Skoda &le; 0.5<br/>squared_error = 422222222.222<br/>samples = 3<br/>value = 473333.333>, fillcolor="#fef8f4"] ;
508 -> 510 ;
511 [label=<จำนวนเจ้าของรถในอดีต &le; 1.5<br/>squared_error = 225000000.0<br/>samples = 2<br/>value = 485000.0>, fillcolor="#fef8f4"] ;
510 -> 511 ;
512 [label=<squared_error = 0.0<br/>samples = 1<br/>value = 470000.0>, fillcolor="#fef8f5"] ;
511 -> 512 ;
513 [label=<squared_error = 0.0<br/>samples = 1<br/>value = 500000.0>, fillcolor="#fef8f4"] ;
511 -> 513 ;
514 [label=<squared_error = 0.0<br/>samples = 1<br/>value = 450000.0>, fillcolor="#fef9f5"] ;
510 -> 514 ;
515 [label=<squared_error = 0.0<br/>samples = 1<br/>value = 400000.0>, fillcolor="#fef9f6"] ;
507 -> 515 ;
516 [label=<squared_error = 0.0<br/>samples = 1<br/>value = 400000.0>, fillcolor="#fef9f6"] ;
506 -> 516 ;
517 [label=<squared_error = 0.0<br/>samples = 1<br/>value = 350000.0>, fillcolor="#fefaf8"] ;
491 -> 517 ;
518 [label=<squared_error = 0.0<br/>samples = 1<br/>value = 555000.0>, fillcolor="#fdf7f2"] ;
490 -> 518 ;
519 [label=<squared_error = 0.0<br/>samples = 1<br/>value = 590000.0>, fillcolor="#fdf6f2"] ;
489 -> 519 ;
520 [label=<x0_LPG &le; 130500.0<br/>squared_error = 5447222222.222<br/>samples = 6<br/>value = 563333.333>, fillcolor="#fdf7f2"] ;
488 -> 520 ;
521 [label=<x0_LPG &le; 85000.0<br/>squared_error = 3454000000.0<br/>samples = 5<br/>value = 586000.0>, fillcolor="#fdf7f2"] ;
520 -> 521 ;
522 [label=<x0_Automatic &le; 0.5<br/>squared_error = 1872222222.222<br/>samples = 3<br/>value = 551666.667>, fillcolor="#fdf7f3"] ;
521 -> 522 ;
523 [label=<squared_error = 0.0<br/>samples = 1<br/>value = 495000.0>, fillcolor="#fef8f4"] ;
522 -> 523 ;
524 [label=<x0_LPG &le; 59000.0<br/>squared_error = 400000000.0<br/>samples = 2<br/>value = 580000.0>, fillcolor="#fdf7f2"] ;
522 -> 524 ;
525 [label=<squared_error = 0.0<br/>samples = 1<br/>value = 600000.0>, fillcolor="#fdf6f1"] ;
524 -> 525 ;
526 [label=<squared_error = 0.0<br/>samples = 1<br/>value = 560000.0>, fillcolor="#fdf7f2"] ;
524 -> 526 ;
527 [label=<x0_Manual &le; 0.5<br/>squared_error = 1406250000.0<br/>samples = 2<br/>value = 637500.0>, fillcolor="#fdf6f0"] ;
521 -> 527 ;
528 [label=<squared_error = 0.0<br/>samples = 1<br/>value = 600000.0>, fillcolor="#fdf6f1"] ;
527 -> 528 ;
529 [label=<squared_error = 0.0<br/>samples = 1<br/>value = 675000.0>, fillcolor="#fdf5f0"] ;
527 -> 529 ;
530 [label=<squared_error = 0.0<br/>samples = 1<br/>value = 450000.0>, fillcolor="#fef9f5"] ;
520 -> 530 ;
531 [label=<x0_LPG &le; 75000.0<br/>squared_error = 27190152809.115<br/>samples = 23<br/>value = 689043.435>, fillcolor="#fdf5ef"] ;
487 -> 531 ;
532 [label=<จำนวนเจ้าของรถในอดีต &le; 1.5<br/>squared_error = 26402934133.395<br/>samples = 15<br/>value = 749333.267>, fillcolor="#fdf4ee"] ;
531 -> 532 ;
533 [label=<x0_LPG &le; 67000.0<br/>squared_error = 25801440000.076<br/>samples = 12<br/>value = 716666.583>, fillcolor="#fdf5ef"] ;
532 -> 533 ;
534 [label=<x0_LPG &le; 47606.5<br/>squared_error = 22860317300.09<br/>samples = 10<br/>value = 746499.9>, fillcolor="#fdf4ee"] ;
533 -> 534 ;
535 [label=<x0_Manual &le; 0.5<br/>squared_error = 31370235833.472<br/>samples = 6<br/>value = 700833.167>, fillcolor="#fdf5ef"] ;
534 -> 535 ;
536 [label=<x0_Mahindra &le; 0.5<br/>squared_error = 60022440000.222<br/>samples = 3<br/>value = 736666.333>, fillcolor="#fdf4ee"] ;
535 -> 536 ;
537 [label=<squared_error = 0.0<br/>samples = 1<br/>value = 800000.0>, fillcolor="#fdf3ed"] ;
536 -> 537 ;
538 [label=<squared_error = 87025295000.25<br/>samples = 2<br/>value = 704999.5>, fillcolor="#fdf5ef"] ;
536 -> 538 ;
539 [label=<x0_CNG &le; 2017.5<br/>squared_error = 150000000.0<br/>samples = 3<br/>value = 665000.0>, fillcolor="#fdf5f0"] ;
535 -> 539 ;
540 [label=<x0_Suzuki &le; 0.5<br/>squared_error = 56250000.0<br/>samples = 2<br/>value = 672500.0>, fillcolor="#fdf5f0"] ;
539 -> 540 ;
541 [label=<squared_error = 0.0<br/>samples = 1<br/>value = 680000.0>, fillcolor="#fdf5ef"] ;
540 -> 541 ;
542 [label=<squared_error = 0.0<br/>samples = 1<br/>value = 665000.0>, fillcolor="#fdf5f0"] ;
540 -> 542 ;
543 [label=<squared_error = 0.0<br/>samples = 1<br/>value = 650000.0>, fillcolor="#fdf6f0"] ;
539 -> 543 ;
544 [label=<x0_Automatic &le; 0.5<br/>squared_error = 2275000000.0<br/>samples = 4<br/>value = 815000.0>, fillcolor="#fdf3ec"] ;
534 -> 544 ;
545 [label=<x0_Suzuki &le; 0.5<br/>squared_error = 400000000.0<br/>samples = 2<br/>value = 860000.0>, fillcolor="#fcf2eb"] ;
544 -> 545 ;
546 [label=<squared_error = 0.0<br/>samples = 1<br/>value = 840000.0>, fillcolor="#fcf3ec"] ;
545 -> 546 ;
547 [label=<squared_error = 0.0<br/>samples = 1<br/>value = 880000.0>, fillcolor="#fcf2eb"] ;
545 -> 547 ;
548 [label=<x0_Mahindra &le; 0.5<br/>squared_error = 100000000.0<br/>samples = 2<br/>value = 770000.0>, fillcolor="#fdf4ed"] ;
544 -> 548 ;
549 [label=<squared_error = 0.0<br/>samples = 1<br/>value = 780000.0>, fillcolor="#fdf4ed"] ;
548 -> 549 ;
550 [label=<squared_error = 0.0<br/>samples = 1<br/>value = 760000.0>, fillcolor="#fdf4ed"] ;
548 -> 550 ;
551 [label=<x0_Manual &le; 0.5<br/>squared_error = 13806250000.0<br/>samples = 2<br/>value = 567500.0>, fillcolor="#fdf7f2"] ;
533 -> 551 ;
552 [label=<squared_error = 0.0<br/>samples = 1<br/>value = 450000.0>, fillcolor="#fef9f5"] ;
551 -> 552 ;
553 [label=<squared_error = 0.0<br/>samples = 1<br/>value = 685000.0>, fillcolor="#fdf5ef"] ;
551 -> 553 ;
554 [label=<x0_LPG &le; 65000.0<br/>squared_error = 7466666666.667<br/>samples = 3<br/>value = 880000.0>, fillcolor="#fcf2eb"] ;
532 -> 554 ;
555 [label=<squared_error = 0.0<br/>samples = 1<br/>value = 1000000.0>, fillcolor="#fcf0e8"] ;
554 -> 555 ;
556 [label=<x0_Suzuki &le; 0.5<br/>squared_error = 400000000.0<br/>samples = 2<br/>value = 820000.0>, fillcolor="#fdf3ec"] ;
554 -> 556 ;
557 [label=<squared_error = 0.0<br/>samples = 1<br/>value = 840000.0>, fillcolor="#fcf3ec"] ;
556 -> 557 ;
558 [label=<squared_error = 0.0<br/>samples = 1<br/>value = 800000.0>, fillcolor="#fdf3ed"] ;
556 -> 558 ;
559 [label=<x0_CNG &le; 2016.5<br/>squared_error = 9072000000.0<br/>samples = 8<br/>value = 576000.0>, fillcolor="#fdf7f2"] ;
531 -> 559 ;
560 [label=<x0_LPG &le; 135581.5<br/>squared_error = 4918750000.0<br/>samples = 4<br/>value = 507500.0>, fillcolor="#fef8f4"] ;
559 -> 560 ;
561 [label=<x0_LPG &le; 79000.0<br/>squared_error = 2755555555.556<br/>samples = 3<br/>value = 476666.667>, fillcolor="#fef8f4"] ;
560 -> 561 ;
562 [label=<squared_error = 0.0<br/>samples = 1<br/>value = 550000.0>, fillcolor="#fdf7f3"] ;
561 -> 562 ;
563 [label=<x0_Hyundai &le; 0.5<br/>squared_error = 100000000.0<br/>samples = 2<br/>value = 440000.0>, fillcolor="#fef9f5"] ;
561 -> 563 ;
564 [label=<squared_error = 0.0<br/>samples = 1<br/>value = 450000.0>, fillcolor="#fef9f5"] ;
563 -> 564 ;
565 [label=<squared_error = 0.0<br/>samples = 1<br/>value = 430000.0>, fillcolor="#fef9f6"] ;
563 -> 565 ;
566 [label=<squared_error = 0.0<br/>samples = 1<br/>value = 600000.0>, fillcolor="#fdf6f1"] ;
560 -> 566 ;
567 [label=<x0_CNG &le; 2017.5<br/>squared_error = 3840750000.0<br/>samples = 4<br/>value = 644500.0>, fillcolor="#fdf6f0"] ;
559 -> 567 ;
568 [label=<x0_LPG &le; 105000.0<br/>squared_error = 174222222.222<br/>samples = 3<br/>value = 609333.333>, fillcolor="#fdf6f1"] ;
567 -> 568 ;
569 [label=<squared_error = 0.0<br/>samples = 2<br/>value = 600000.0>, fillcolor="#fdf6f1"] ;
568 -> 569 ;
570 [label=<squared_error = 0.0<br/>samples = 1<br/>value = 628000.0>, fillcolor="#fdf6f1"] ;
568 -> 570 ;
571 [label=<squared_error = 0.0<br/>samples = 1<br/>value = 750000.0>, fillcolor="#fdf4ee"] ;
567 -> 571 ;
572 [label=<x0_LPG &le; 115000.0<br/>squared_error = 131093750000.0<br/>samples = 8<br/>value = 1125000.0>, fillcolor="#fceee5"] ;
450 -> 572 ;
573 [label=<x0_Automatic &le; 0.5<br/>squared_error = 61180555555.556<br/>samples = 6<br/>value = 966666.667>, fillcolor="#fcf1e8"] ;
572 -> 573 ;
574 [label=<squared_error = 0.0<br/>samples = 1<br/>value = 525000.0>, fillcolor="#fdf8f3"] ;
573 -> 574 ;
575 [label=<x0_LPG &le; 40000.0<br/>squared_error = 26600000000.0<br/>samples = 5<br/>value = 1055000.0>, fillcolor="#fcefe6"] ;
573 -> 575 ;
576 [label=<squared_error = 0.0<br/>samples = 1<br/>value = 800000.0>, fillcolor="#fdf3ed"] ;
575 -> 576 ;
577 [label=<x0_CNG &le; 2014.5<br/>squared_error = 12929687500.0<br/>samples = 4<br/>value = 1118750.0>, fillcolor="#fceee5"] ;
575 -> 577 ;
578 [label=<x0_LPG &le; 90000.0<br/>squared_error = 625000000.0<br/>samples = 2<br/>value = 1025000.0>, fillcolor="#fcf0e7"] ;
577 -> 578 ;
579 [label=<squared_error = 0.0<br/>samples = 1<br/>value = 1050000.0>, fillcolor="#fcefe6"] ;
578 -> 579 ;
580 [label=<squared_error = 0.0<br/>samples = 1<br/>value = 1000000.0>, fillcolor="#fcf0e8"] ;
578 -> 580 ;
581 [label=<x0_LPG &le; 72500.0<br/>squared_error = 7656250000.0<br/>samples = 2<br/>value = 1212500.0>, fillcolor="#fbede2"] ;
577 -> 581 ;
582 [label=<squared_error = 0.0<br/>samples = 1<br/>value = 1125000.0>, fillcolor="#fceee5"] ;
581 -> 582 ;
583 [label=<squared_error = 0.0<br/>samples = 1<br/>value = 1300000.0>, fillcolor="#fbebe0"] ;
581 -> 583 ;
584 [label=<x0_Automatic &le; 0.5<br/>squared_error = 40000000000.0<br/>samples = 2<br/>value = 1600000.0>, fillcolor="#fae7d9"] ;
572 -> 584 ;
585 [label=<squared_error = 0.0<br/>samples = 1<br/>value = 1800000.0>, fillcolor="#f9e4d4"] ;
584 -> 585 ;
586 [label=<squared_error = 0.0<br/>samples = 1<br/>value = 1400000.0>, fillcolor="#fbeade"] ;
584 -> 586 ;
587 [label=<x0_เจ้าของขายเอง &le; 0.5<br/>squared_error = 490473040000.0<br/>samples = 25<br/>value = 1136400.0>, fillcolor="#fbeee4"] ;
1 -> 587 ;
588 [label=<x0_Manual &le; 0.5<br/>squared_error = 187238888888.889<br/>samples = 9<br/>value = 553333.333>, fillcolor="#fdf7f3"] ;
587 -> 588 ;
589 [label=<x0_Toyota &le; 0.5<br/>squared_error = 41517187500.0<br/>samples = 8<br/>value = 416250.0>, fillcolor="#fef9f6"] ;
588 -> 589 ;
590 [label=<x0_Mitsubishi &le; 0.5<br/>squared_error = 9241836734.694<br/>samples = 7<br/>value = 347142.857>, fillcolor="#fefaf8"] ;
589 -> 590 ;
591 [label=<x0_Honda &le; 0.5<br/>squared_error = 4631250000.0<br/>samples = 6<br/>value = 317500.0>, fillcolor="#fefbf8"] ;
590 -> 591 ;
592 [label=<x0_LPG &le; 24500.0<br/>squared_error = 1825000000.0<br/>samples = 4<br/>value = 355000.0>, fillcolor="#fefaf7"] ;
591 -> 592 ;
593 [label=<x0_Suzuki &le; 0.5<br/>squared_error = 1225000000.0<br/>samples = 2<br/>value = 385000.0>, fillcolor="#fefaf7"] ;
592 -> 593 ;
594 [label=<squared_error = 0.0<br/>samples = 1<br/>value = 350000.0>, fillcolor="#fefaf8"] ;
593 -> 594 ;
595 [label=<squared_error = 0.0<br/>samples = 1<br/>value = 420000.0>, fillcolor="#fef9f6"] ;
593 -> 595 ;
596 [label=<จำนวนเจ้าของรถในอดีต &le; 1.5<br/>squared_error = 625000000.0<br/>samples = 2<br/>value = 325000.0>, fillcolor="#fefbf8"] ;
592 -> 596 ;
597 [label=<squared_error = 0.0<br/>samples = 1<br/>value = 300000.0>, fillcolor="#fefbf9"] ;
596 -> 597 ;
598 [label=<squared_error = 0.0<br/>samples = 1<br/>value = 350000.0>, fillcolor="#fefaf8"] ;
596 -> 598 ;
599 [label=<x0_CNG &le; 2009.5<br/>squared_error = 1806250000.0<br/>samples = 2<br/>value = 242500.0>, fillcolor="#fefcfa"] ;
591 -> 599 ;
600 [label=<squared_error = 0.0<br/>samples = 1<br/>value = 200000.0>, fillcolor="#fefdfb"] ;
599 -> 600 ;
601 [label=<squared_error = 0.0<br/>samples = 1<br/>value = 285000.0>, fillcolor="#fefbf9"] ;
599 -> 601 ;
602 [label=<squared_error = 0.0<br/>samples = 1<br/>value = 525000.0>, fillcolor="#fdf8f3"] ;
590 -> 602 ;
603 [label=<squared_error = 0.0<br/>samples = 1<br/>value = 900000.0>, fillcolor="#fcf2ea"] ;
589 -> 603 ;
604 [label=<squared_error = 0.0<br/>samples = 1<br/>value = 1650000.0>, fillcolor="#fae6d8"] ;
588 -> 604 ;
605 [label=<x0_LPG &le; 49000.0<br/>squared_error = 362243359375.0<br/>samples = 16<br/>value = 1464375.0>, fillcolor="#fae9dc"] ;
587 -> 605 ;
606 [label=<x0_BMW &le; 0.5<br/>squared_error = 399416666666.666<br/>samples = 6<br/>value = 1945000.0>, fillcolor="#f9e1d1"] ;
605 -> 606 ;
607 [label=<x0_LPG &le; 4750.0<br/>squared_error = 151606250000.0<br/>samples = 4<br/>value = 1567500.0>, fillcolor="#fae7da"] ;
606 -> 607 ;
608 [label=<squared_error = 0.0<br/>samples = 1<br/>value = 975000.0>, fillcolor="#fcf1e8"] ;
607 -> 608 ;
609 [label=<จำนวนเจ้าของรถในอดีต &le; 1.5<br/>squared_error = 46116666666.666<br/>samples = 3<br/>value = 1765000.0>, fillcolor="#f9e4d5"] ;
607 -> 609 ;
610 [label=<x0_Manual &le; 0.5<br/>squared_error = 3906250000.0<br/>samples = 2<br/>value = 1912500.0>, fillcolor="#f9e2d1"] ;
609 -> 610 ;
611 [label=<squared_error = 0.0<br/>samples = 1<br/>value = 1850000.0>, fillcolor="#f9e3d3"] ;
610 -> 611 ;
612 [label=<squared_error = 0.0<br/>samples = 1<br/>value = 1975000.0>, fillcolor="#f9e1d0"] ;
610 -> 612 ;
613 [label=<squared_error = 0.0<br/>samples = 1<br/>value = 1470000.0>, fillcolor="#fae9dc"] ;
609 -> 613 ;
614 [label=<x0_Manual &le; 0.5<br/>squared_error = 40000000000.0<br/>samples = 2<br/>value = 2700000.0>, fillcolor="#f6d6be"] ;
606 -> 614 ;
615 [label=<squared_error = 0.0<br/>samples = 1<br/>value = 2900000.0>, fillcolor="#f6d3b9"] ;
614 -> 615 ;
616 [label=<squared_error = 0.0<br/>samples = 1<br/>value = 2500000.0>, fillcolor="#f7d9c3"] ;
614 -> 616 ;
617 [label=<x0_CNG &le; 2014.0<br/>squared_error = 118179000000.0<br/>samples = 10<br/>value = 1176000.0>, fillcolor="#fbede3"] ;
605 -> 617 ;
618 [label=<x0_Mahindra &le; 0.5<br/>squared_error = 89579687500.0<br/>samples = 8<br/>value = 1281250.0>, fillcolor="#fbece1"] ;
617 -> 618 ;
619 [label=<x0_LPG &le; 51500.0<br/>squared_error = 37319387755.102<br/>samples = 7<br/>value = 1371428.571>, fillcolor="#fbeadf"] ;
618 -> 619 ;
620 [label=<squared_error = 0.0<br/>samples = 1<br/>value = 1735000.0>, fillcolor="#fae5d6"] ;
619 -> 620 ;
621 [label=<x0_Audi &le; 0.5<br/>squared_error = 17836805555.556<br/>samples = 6<br/>value = 1310833.333>, fillcolor="#fbebe0"] ;
619 -> 621 ;
622 [label=<x0_Automatic &le; 0.5<br/>squared_error = 7656250000.0<br/>samples = 2<br/>value = 1462500.0>, fillcolor="#fae9dc"] ;
621 -> 622 ;
623 [label=<squared_error = 0.0<br/>samples = 1<br/>value = 1550000.0>, fillcolor="#fae8da"] ;
622 -> 623 ;
624 [label=<squared_error = 0.0<br/>samples = 1<br/>value = 1375000.0>, fillcolor="#fbeade"] ;
622 -> 624 ;
625 [label=<x0_Automatic &le; 0.5<br/>squared_error = 5675000000.0<br/>samples = 4<br/>value = 1235000.0>, fillcolor="#fbece2"] ;
621 -> 625 ;
626 [label=<จำนวนเจ้าของรถในอดีต &le; 2.0<br/>squared_error = 1688888888.889<br/>samples = 3<br/>value = 1196666.667>, fillcolor="#fbede3"] ;
625 -> 626 ;
627 [label=<x0_CNG &le; 2012.0<br/>squared_error = 400000000.0<br/>samples = 2<br/>value = 1170000.0>, fillcolor="#fbede3"] ;
626 -> 627 ;
628 [label=<squared_error = 0.0<br/>samples = 1<br/>value = 1190000.0>, fillcolor="#fbede3"] ;
627 -> 628 ;
629 [label=<squared_error = 0.0<br/>samples = 1<br/>value = 1150000.0>, fillcolor="#fbeee4"] ;
627 -> 629 ;
630 [label=<squared_error = 0.0<br/>samples = 1<br/>value = 1250000.0>, fillcolor="#fbece2"] ;
626 -> 630 ;
631 [label=<squared_error = 0.0<br/>samples = 1<br/>value = 1350000.0>, fillcolor="#fbebdf"] ;
625 -> 631 ;
632 [label=<squared_error = 0.0<br/>samples = 1<br/>value = 650000.0>, fillcolor="#fdf6f0"] ;
618 -> 632 ;
633 [label=<x0_LPG &le; 66040.0<br/>squared_error = 11025000000.0<br/>samples = 2<br/>value = 755000.0>, fillcolor="#fdf4ee"] ;
617 -> 633 ;
634 [label=<squared_error = 0.0<br/>samples = 1<br/>value = 650000.0>, fillcolor="#fdf6f0"] ;
633 -> 634 ;
635 [label=<squared_error = 0.0<br/>samples = 1<br/>value = 860000.0>, fillcolor="#fcf2eb"] ;
633 -> 635 ;
636 [label=<x0_LPG &le; 9900.0<br/>squared_error = 4720908185926.023<br/>samples = 9<br/>value = 2690555.444>, fillcolor="#f7d6be"] ;
0 -> 636 [labeldistance=2.5, labelangle=-45, headlabel="False"] ;
637 [label=<x0_เต๊นท์รถ &le; 0.5<br/>squared_error = 3330625000000.0<br/>samples = 2<br/>value = 6325000.0>, fillcolor="#eb9d66"] ;
636 -> 637 ;
638 [label=<squared_error = 0.0<br/>samples = 1<br/>value = 8150000.0>, fillcolor="#e58139"] ;
637 -> 638 ;
639 [label=<squared_error = 0.0<br/>samples = 1<br/>value = 4500000.0>, fillcolor="#f1ba92"] ;
637 -> 639 ;
640 [label=<x0_LPG &le; 89000.0<br/>squared_error = 265777461632.775<br/>samples = 7<br/>value = 1652142.714>, fillcolor="#fae6d8"] ;
636 -> 640 ;
641 [label=<x0_CNG &le; 2011.0<br/>squared_error = 184961745833.472<br/>samples = 6<br/>value = 1785833.167>, fillcolor="#f9e4d4"] ;
640 -> 641 ;
642 [label=<squared_error = 0.0<br/>samples = 1<br/>value = 2550000.0>, fillcolor="#f7d8c2"] ;
641 -> 642 ;
643 [label=<x0_LPG &le; 30900.0<br/>squared_error = 81805867200.16<br/>samples = 5<br/>value = 1632999.8>, fillcolor="#fae6d8"] ;
641 -> 643 ;
644 [label=<x0_LPG &le; 12500.0<br/>squared_error = 75605437778.0<br/>samples = 3<br/>value = 1788333.0>, fillcolor="#f9e4d4"] ;
643 -> 644 ;
645 [label=<squared_error = 0.0<br/>samples = 1<br/>value = 1400000.0>, fillcolor="#fbeade"] ;
644 -> 645 ;
646 [label=<x0_LPG &le; 21500.0<br/>squared_error = 306267500.25<br/>samples = 2<br/>value = 1982499.5>, fillcolor="#f9e1d0"] ;
644 -> 646 ;
647 [label=<squared_error = 0.0<br/>samples = 1<br/>value = 2000000.0>, fillcolor="#f9e1cf"] ;
646 -> 647 ;
648 [label=<squared_error = 0.0<br/>samples = 1<br/>value = 1964999.0>, fillcolor="#f9e1d0"] ;
646 -> 648 ;
649 [label=<จำนวนเจ้าของรถในอดีต &le; 1.5<br/>squared_error = 625000000.0<br/>samples = 2<br/>value = 1400000.0>, fillcolor="#fbeade"] ;
643 -> 649 ;
650 [label=<squared_error = 0.0<br/>samples = 1<br/>value = 1425000.0>, fillcolor="#fbeadd"] ;
649 -> 650 ;
651 [label=<squared_error = 0.0<br/>samples = 1<br/>value = 1375000.0>, fillcolor="#fbeade"] ;
649 -> 651 ;
652 [label=<squared_error = 0.0<br/>samples = 1<br/>value = 850000.0>, fillcolor="#fcf2eb"] ;
640 -> 652 ;
}
