digraph Tree {
node [shape=box, fontname="helvetica"] ;
edge [fontname="helvetica"] ;
0 [label="ยี่ห้อ_Mercedes-Benz <= 0.5\nsquared_error = 376922178231.701\nsamples = 350\nvalue = 494725.686"] ;
1 [label="ประเภทเกียร์_Automatic <= 0.5\nsquared_error = 137488656987.101\nsamples = 342\nvalue = 440947.339"] ;
0 -> 1 [labeldistance=2.5, labelangle=45, headlabel="True"] ;
5 [label="ปีที่ออกขายครั้งแรก <= 2014.5\nsquared_error = 78193362990.083\nsamples = 321\nvalue = 397395.607"] ;
1 -> 5 ;
7 [label="ปีที่ออกขายครั้งแรก <= 2010.5\nsquared_error = 30022208584.475\nsamples = 193\nvalue = 264839.347"] ;
5 -> 7 ;
17 [label="squared_error = 7343385472.026\nsamples = 75\nvalue = 150599.973"] ;
7 -> 17 ;
18 [label="squared_error = 30869641055.189\nsamples = 118\nvalue = 337449.119"] ;
7 -> 18 ;
8 [label="ประเภทเชื้อเพลิง_เบนซิน <= 0.5\nsquared_error = 84384402397.491\nsamples = 128\nvalue = 597265.594"] ;
5 -> 8 ;
15 [label="squared_error = 87391186480.355\nsamples = 59\nvalue = 745033.864"] ;
8 -> 15 ;
16 [label="squared_error = 47177507708.913\nsamples = 69\nvalue = 470913.014"] ;
8 -> 16 ;
6 [label="ประเภทเชื้อเพลิง_เบนซิน <= 0.5\nsquared_error = 571684126984.127\nsamples = 21\nvalue = 1106666.667"] ;
1 -> 6 ;
11 [label="กิโลเมตรที่ขับไปแล้ว <= 49500.0\nsquared_error = 485670833333.334\nsamples = 12\nvalue = 1505000.0"] ;
6 -> 11 ;
13 [label="squared_error = 157222222222.222\nsamples = 3\nvalue = 2383333.333"] ;
11 -> 13 ;
14 [label="squared_error = 252278395061.728\nsamples = 9\nvalue = 1212222.222"] ;
11 -> 14 ;
12 [label="ยี่ห้อ_Toyota <= 0.5\nsquared_error = 192730246913.58\nsamples = 9\nvalue = 575555.556"] ;
6 -> 12 ;
19 [label="squared_error = 27903061224.49\nsamples = 7\nvalue = 375714.286"] ;
12 -> 19 ;
20 [label="squared_error = 140625000000.0\nsamples = 2\nvalue = 1275000.0"] ;
12 -> 20 ;
2 [label="ปีที่ออกขายครั้งแรก <= 2015.0\nsquared_error = 5203554687500.0\nsamples = 8\nvalue = 2793750.0"] ;
0 -> 2 [labeldistance=2.5, labelangle=-45, headlabel="False"] ;
3 [label="squared_error = 285763888888.889\nsamples = 6\nvalue = 1616666.667"] ;
2 -> 3 ;
4 [label="กิโลเมตรที่ขับไปแล้ว <= 8150.0\nsquared_error = 3330625000000.0\nsamples = 2\nvalue = 6325000.0"] ;
2 -> 4 ;
9 [label="squared_error = 0.0\nsamples = 1\nvalue = 8150000.0"] ;
4 -> 9 ;
10 [label="squared_error = 0.0\nsamples = 1\nvalue = 4500000.0"] ;
4 -> 10 ;
}